digraph Tree {
node [shape=box, style="rounded", color="black", fontname="helvetica"] ;
edge [fontname="helvetica"] ;
0 [label="Iges <= 57.1\nsquared_error = 3597.7\nsamples = 904\nvalue = 258.2"] ;
1 [label="Iges <= 44.7\nsquared_error = 975.3\nsamples = 625\nvalue = 225.4"] ;
0 -> 1 [labeldistance=2.5, labelangle=45, headlabel="True"] ;
2 [label="Iges <= 38.5\nsquared_error = 341.5\nsamples = 303\nvalue = 201.4"] ;
1 -> 2 ;
3 [label="Ushunt <= 3.7\nsquared_error = 139.1\nsamples = 101\nvalue = 184.5"] ;
2 -> 3 ;
4 [label="Idle1Time <= 9418992.5\nsquared_error = 11.9\nsamples = 35\nvalue = 176.9"] ;
3 -> 4 ;
5 [label="Iges <= 36.2\nsquared_error = 3.5\nsamples = 25\nvalue = 178.6"] ;
4 -> 5 ;
6 [label="Idle1Time <= 7498632.0\nsquared_error = 3.5\nsamples = 17\nvalue = 178.0"] ;
5 -> 6 ;
7 [label="mainTime <= 2919.0\nsquared_error = 0.8\nsamples = 6\nvalue = 176.4"] ;
6 -> 7 ;
8 [label="Ushunt <= 3.6\nsquared_error = 0.2\nsamples = 2\nvalue = 177.6"] ;
7 -> 8 ;
9 [label="squared_error = 0.0\nsamples = 1\nvalue = 177.3"] ;
8 -> 9 ;
10 [label="squared_error = -0.0\nsamples = 1\nvalue = 178.3"] ;
8 -> 10 ;
11 [label="sub <= 0.5\nsquared_error = 0.1\nsamples = 4\nvalue = 175.8"] ;
7 -> 11 ;
12 [label="mainTime <= 2946.5\nsquared_error = 0.0\nsamples = 3\nvalue = 175.7"] ;
11 -> 12 ;
13 [label="subf <= 0.5\nsquared_error = 0.0\nsamples = 2\nvalue = 175.6"] ;
12 -> 13 ;
14 [label="squared_error = 0.0\nsamples = 1\nvalue = 175.4"] ;
13 -> 14 ;
15 [label="squared_error = -0.0\nsamples = 1\nvalue = 175.6"] ;
13 -> 15 ;
16 [label="squared_error = 0.0\nsamples = 1\nvalue = 175.8"] ;
12 -> 16 ;
17 [label="squared_error = -0.0\nsamples = 1\nvalue = 176.2"] ;
11 -> 17 ;
18 [label="Ushunt <= 3.6\nsquared_error = 2.7\nsamples = 11\nvalue = 178.9"] ;
6 -> 18 ;
19 [label="Ushunt <= 3.5\nsquared_error = 1.9\nsamples = 9\nvalue = 177.9"] ;
18 -> 19 ;
20 [label="squared_error = 0.0\nsamples = 1\nvalue = 174.3"] ;
19 -> 20 ;
21 [label="workTime <= 7487762.5\nsquared_error = 0.7\nsamples = 8\nvalue = 178.2"] ;
19 -> 21 ;
22 [label="squared_error = 0.0\nsamples = 1\nvalue = 177.1"] ;
21 -> 22 ;
23 [label="Idle1Time <= 7498998.5\nsquared_error = 0.5\nsamples = 7\nvalue = 178.5"] ;
21 -> 23 ;
24 [label="Iges <= 36.0\nsquared_error = 0.3\nsamples = 5\nvalue = 178.2"] ;
23 -> 24 ;
25 [label="mainTime <= 2915.0\nsquared_error = 0.1\nsamples = 3\nvalue = 177.9"] ;
24 -> 25 ;
26 [label="squared_error = 0.0\nsamples = 1\nvalue = 177.3"] ;
25 -> 26 ;
27 [label="workTime <= 7489583.5\nsquared_error = 0.0\nsamples = 2\nvalue = 178.1"] ;
25 -> 27 ;
28 [label="squared_error = 0.0\nsamples = 1\nvalue = 178.2"] ;
27 -> 28 ;
29 [label="squared_error = 0.0\nsamples = 1\nvalue = 178.0"] ;
27 -> 29 ;
30 [label="mainTime <= 2847.5\nsquared_error = 0.0\nsamples = 2\nvalue = 178.8"] ;
24 -> 30 ;
31 [label="squared_error = 0.0\nsamples = 1\nvalue = 178.7"] ;
30 -> 31 ;
32 [label="squared_error = 0.0\nsamples = 1\nvalue = 178.8"] ;
30 -> 32 ;
33 [label="Idle1Time <= 7499323.0\nsquared_error = 0.0\nsamples = 2\nvalue = 179.4"] ;
23 -> 33 ;
34 [label="squared_error = 0.0\nsamples = 1\nvalue = 179.4"] ;
33 -> 34 ;
35 [label="squared_error = -0.0\nsamples = 1\nvalue = 179.4"] ;
33 -> 35 ;
36 [label="mainTime <= 2946.5\nsquared_error = 0.2\nsamples = 2\nvalue = 180.3"] ;
18 -> 36 ;
37 [label="squared_error = 0.0\nsamples = 1\nvalue = 180.6"] ;
36 -> 37 ;
38 [label="squared_error = -0.0\nsamples = 1\nvalue = 179.4"] ;
36 -> 38 ;
39 [label="workTime <= 7489281.5\nsquared_error = 1.2\nsamples = 8\nvalue = 179.9"] ;
5 -> 39 ;
40 [label="Idle1Time <= 7594781.0\nsquared_error = 0.3\nsamples = 5\nvalue = 179.1"] ;
39 -> 40 ;
41 [label="Iges <= 36.3\nsquared_error = 0.1\nsamples = 3\nvalue = 178.4"] ;
40 -> 41 ;
42 [label="squared_error = 0.0\nsamples = 1\nvalue = 178.1"] ;
41 -> 42 ;
43 [label="add <= 0.5\nsquared_error = 0.0\nsamples = 2\nvalue = 178.6"] ;
41 -> 43 ;
44 [label="squared_error = 0.0\nsamples = 1\nvalue = 178.5"] ;
43 -> 44 ;
45 [label="squared_error = -0.0\nsamples = 1\nvalue = 178.8"] ;
43 -> 45 ;
46 [label="Ushunt <= 3.6\nsquared_error = 0.0\nsamples = 2\nvalue = 179.5"] ;
40 -> 46 ;
47 [label="squared_error = 0.0\nsamples = 1\nvalue = 179.7"] ;
46 -> 47 ;
48 [label="squared_error = -0.0\nsamples = 1\nvalue = 179.4"] ;
46 -> 48 ;
49 [label="mainTime <= 2996.0\nsquared_error = 0.5\nsamples = 3\nvalue = 180.8"] ;
39 -> 49 ;
50 [label="Idle1Time <= 5624333.0\nsquared_error = 0.3\nsamples = 2\nvalue = 181.3"] ;
49 -> 50 ;
51 [label="squared_error = 0.0\nsamples = 1\nvalue = 181.0"] ;
50 -> 51 ;
52 [label="squared_error = -0.0\nsamples = 1\nvalue = 182.2"] ;
50 -> 52 ;
53 [label="squared_error = 0.0\nsamples = 1\nvalue = 180.1"] ;
49 -> 53 ;
54 [label="Ushunt <= 3.5\nsquared_error = 1.2\nsamples = 10\nvalue = 171.8"] ;
4 -> 54 ;
55 [label="Idle1Time <= 11248517.5\nsquared_error = 0.2\nsamples = 7\nvalue = 172.5"] ;
54 -> 55 ;
56 [label="Ushunt <= 3.5\nsquared_error = 0.0\nsamples = 4\nvalue = 172.2"] ;
55 -> 56 ;
57 [label="Ushunt <= 3.5\nsquared_error = 0.0\nsamples = 2\nvalue = 172.1"] ;
56 -> 57 ;
58 [label="squared_error = 0.0\nsamples = 1\nvalue = 172.1"] ;
57 -> 58 ;
59 [label="squared_error = 0.0\nsamples = 1\nvalue = 172.2"] ;
57 -> 59 ;
60 [label="Iges <= 35.1\nsquared_error = 0.0\nsamples = 2\nvalue = 172.3"] ;
56 -> 60 ;
61 [label="squared_error = 0.0\nsamples = 1\nvalue = 172.3"] ;
60 -> 61 ;
62 [label="squared_error = -0.0\nsamples = 1\nvalue = 172.3"] ;
60 -> 62 ;
63 [label="mainTime <= 2948.0\nsquared_error = 0.0\nsamples = 3\nvalue = 173.2"] ;
55 -> 63 ;
64 [label="squared_error = 0.0\nsamples = 1\nvalue = 173.5"] ;
63 -> 64 ;
65 [label="Idle1Time <= 11248575.5\nsquared_error = 0.0\nsamples = 2\nvalue = 173.1"] ;
63 -> 65 ;
66 [label="squared_error = 0.0\nsamples = 1\nvalue = 173.0"] ;
65 -> 66 ;
67 [label="squared_error = 0.0\nsamples = 1\nvalue = 173.1"] ;
65 -> 67 ;
68 [label="Idle1Time <= 11248628.5\nsquared_error = 0.0\nsamples = 3\nvalue = 170.4"] ;
54 -> 68 ;
69 [label="squared_error = 0.0\nsamples = 1\nvalue = 170.6"] ;
68 -> 69 ;
70 [label="addf <= 0.5\nsquared_error = 0.0\nsamples = 2\nvalue = 170.3"] ;
68 -> 70 ;
71 [label="squared_error = 0.0\nsamples = 1\nvalue = 170.4"] ;
70 -> 71 ;
72 [label="squared_error = 0.0\nsamples = 1\nvalue = 170.3"] ;
70 -> 72 ;
73 [label="Ushunt <= 5.4\nsquared_error = 159.4\nsamples = 66\nvalue = 188.2"] ;
3 -> 73 ;
74 [label="Idle1Time <= 11248224.0\nsquared_error = 130.1\nsamples = 65\nvalue = 187.5"] ;
73 -> 74 ;
75 [label="Idle1Time <= 11247557.5\nsquared_error = 120.3\nsamples = 55\nvalue = 188.9"] ;
74 -> 75 ;
76 [label="Iges <= 35.6\nsquared_error = 90.7\nsamples = 49\nvalue = 187.0"] ;
75 -> 76 ;
77 [label="workTime <= 3730183.5\nsquared_error = 6.3\nsamples = 8\nvalue = 174.1"] ;
76 -> 77 ;
78 [label="Ushunt <= 4.2\nsquared_error = 1.8\nsamples = 4\nvalue = 172.0"] ;
77 -> 78 ;
79 [label="squared_error = 0.0\nsamples = 1\nvalue = 170.4"] ;
78 -> 79 ;
80 [label="noop <= 0.5\nsquared_error = 0.1\nsamples = 3\nvalue = 173.1"] ;
78 -> 80 ;
81 [label="Idle1Time <= 11245919.0\nsquared_error = 0.0\nsamples = 2\nvalue = 173.3"] ;
80 -> 81 ;
82 [label="squared_error = 0.0\nsamples = 1\nvalue = 173.3"] ;
81 -> 82 ;
83 [label="squared_error = -0.0\nsamples = 1\nvalue = 173.3"] ;
81 -> 83 ;
84 [label="squared_error = 0.0\nsamples = 1\nvalue = 172.6"] ;
80 -> 84 ;
85 [label="mainTime <= 2987.0\nsquared_error = 0.2\nsamples = 4\nvalue = 176.6"] ;
77 -> 85 ;
86 [label="mainTime <= 2940.5\nsquared_error = 0.0\nsamples = 2\nvalue = 176.3"] ;
85 -> 86 ;
87 [label="squared_error = 0.0\nsamples = 1\nvalue = 176.2"] ;
86 -> 87 ;
88 [label="squared_error = -0.0\nsamples = 1\nvalue = 176.4"] ;
86 -> 88 ;
89 [label="Idle1Time <= 7498142.0\nsquared_error = 0.1\nsamples = 2\nvalue = 177.2"] ;
85 -> 89 ;
90 [label="squared_error = 0.0\nsamples = 1\nvalue = 176.9"] ;
89 -> 90 ;
91 [label="squared_error = 0.0\nsamples = 1\nvalue = 177.5"] ;
89 -> 91 ;
92 [label="workTime <= 11230113.5\nsquared_error = 72.0\nsamples = 41\nvalue = 189.2"] ;
76 -> 92 ;
93 [label="workTime <= 7488879.0\nsquared_error = 30.3\nsamples = 37\nvalue = 187.7"] ;
92 -> 93 ;
94 [label="workTime <= 7486782.0\nsquared_error = 23.6\nsamples = 3\nvalue = 203.7"] ;
93 -> 94 ;
95 [label="squared_error = 0.0\nsamples = 1\nvalue = 198.3"] ;
94 -> 95 ;
96 [label="subf <= 0.5\nsquared_error = 6.2\nsamples = 2\nvalue = 207.4"] ;
94 -> 96 ;
97 [label="squared_error = 0.0\nsamples = 1\nvalue = 210.9"] ;
96 -> 97 ;
98 [label="squared_error = 0.0\nsamples = 1\nvalue = 205.6"] ;
96 -> 98 ;
99 [label="Iges <= 37.7\nsquared_error = 8.7\nsamples = 34\nvalue = 186.4"] ;
93 -> 99 ;
100 [label="Idle1Time <= 5624874.5\nsquared_error = 4.5\nsamples = 10\nvalue = 183.0"] ;
99 -> 100 ;
101 [label="workTime <= 11227292.5\nsquared_error = 1.5\nsamples = 7\nvalue = 184.1"] ;
100 -> 101 ;
102 [label="workTime <= 11226023.5\nsquared_error = 0.6\nsamples = 4\nvalue = 184.9"] ;
101 -> 102 ;
103 [label="Ushunt <= 3.9\nsquared_error = 0.1\nsamples = 2\nvalue = 184.2"] ;
102 -> 103 ;
104 [label="squared_error = 0.0\nsamples = 1\nvalue = 183.8"] ;
103 -> 104 ;
105 [label="squared_error = 0.0\nsamples = 1\nvalue = 184.5"] ;
103 -> 105 ;
106 [label="mainTime <= 2997.5\nsquared_error = 0.1\nsamples = 2\nvalue = 185.5"] ;
102 -> 106 ;
107 [label="squared_error = 0.0\nsamples = 1\nvalue = 185.9"] ;
106 -> 107 ;
108 [label="squared_error = 0.0\nsamples = 1\nvalue = 185.3"] ;
106 -> 108 ;
109 [label="Ushunt <= 3.8\nsquared_error = 0.0\nsamples = 3\nvalue = 182.7"] ;
101 -> 109 ;
110 [label="squared_error = 0.0\nsamples = 1\nvalue = 183.0"] ;
109 -> 110 ;
111 [label="workTime <= 11228174.0\nsquared_error = 0.0\nsamples = 2\nvalue = 182.7"] ;
109 -> 111 ;
112 [label="squared_error = 0.0\nsamples = 1\nvalue = 182.7"] ;
111 -> 112 ;
113 [label="squared_error = 0.0\nsamples = 1\nvalue = 182.6"] ;
111 -> 113 ;
114 [label="mainTime <= 2916.5\nsquared_error = 0.8\nsamples = 3\nvalue = 180.2"] ;
100 -> 114 ;
115 [label="Iges <= 36.2\nsquared_error = 0.3\nsamples = 2\nvalue = 181.0"] ;
114 -> 115 ;
116 [label="squared_error = 0.0\nsamples = 1\nvalue = 181.4"] ;
115 -> 116 ;
117 [label="squared_error = -0.0\nsamples = 1\nvalue = 180.2"] ;
115 -> 117 ;
118 [label="squared_error = -0.0\nsamples = 1\nvalue = 179.4"] ;
114 -> 118 ;
119 [label="mainTime <= 2931.0\nsquared_error = 2.7\nsamples = 24\nvalue = 188.0"] ;
99 -> 119 ;
120 [label="Idle1Time <= 3749133.0\nsquared_error = 1.5\nsamples = 6\nvalue = 189.9"] ;
119 -> 120 ;
121 [label="workTime <= 11229499.0\nsquared_error = 0.9\nsamples = 3\nvalue = 189.3"] ;
120 -> 121 ;
122 [label="sub <= 0.5\nsquared_error = 0.1\nsamples = 2\nvalue = 188.6"] ;
121 -> 122 ;
123 [label="squared_error = 0.0\nsamples = 1\nvalue = 188.7"] ;
122 -> 123 ;
124 [label="squared_error = 0.0\nsamples = 1\nvalue = 187.9"] ;
122 -> 124 ;
125 [label="squared_error = 0.0\nsamples = 1\nvalue = 190.5"] ;
121 -> 125 ;
126 [label="Idle1Time <= 3840630.0\nsquared_error = 0.2\nsamples = 3\nvalue = 191.1"] ;
120 -> 126 ;
127 [label="Idle1Time <= 3794696.5\nsquared_error = 0.0\nsamples = 2\nvalue = 190.9"] ;
126 -> 127 ;
128 [label="squared_error = 0.0\nsamples = 1\nvalue = 191.1"] ;
127 -> 128 ;
129 [label="squared_error = 0.0\nsamples = 1\nvalue = 190.8"] ;
127 -> 129 ;
130 [label="squared_error = -0.0\nsamples = 1\nvalue = 192.0"] ;
126 -> 130 ;
131 [label="workTime <= 11226864.5\nsquared_error = 1.2\nsamples = 18\nvalue = 187.2"] ;
119 -> 131 ;
132 [label="squared_error = 0.0\nsamples = 1\nvalue = 184.4"] ;
131 -> 132 ;
133 [label="Idle1Time <= 3749366.0\nsquared_error = 0.7\nsamples = 17\nvalue = 187.4"] ;
131 -> 133 ;
134 [label="addf <= 0.5\nsquared_error = 0.6\nsamples = 9\nvalue = 187.9"] ;
133 -> 134 ;
135 [label="subf <= 0.5\nsquared_error = 0.3\nsamples = 8\nvalue = 187.6"] ;
134 -> 135 ;
136 [label="add <= 0.5\nsquared_error = 0.1\nsamples = 7\nvalue = 187.8"] ;
135 -> 136 ;
137 [label="workTime <= 11229253.0\nsquared_error = 0.0\nsamples = 6\nvalue = 187.7"] ;
136 -> 137 ;
138 [label="divf <= 0.5\nsquared_error = 0.0\nsamples = 4\nvalue = 187.8"] ;
137 -> 138 ;
139 [label="workTime <= 11228988.0\nsquared_error = 0.0\nsamples = 3\nvalue = 187.8"] ;
138 -> 139 ;
140 [label="Idle1Time <= 3748548.5\nsquared_error = 0.0\nsamples = 2\nvalue = 187.9"] ;
139 -> 140 ;
141 [label="squared_error = 0.0\nsamples = 1\nvalue = 187.9"] ;
140 -> 141 ;
142 [label="squared_error = -0.0\nsamples = 1\nvalue = 187.9"] ;
140 -> 142 ;
143 [label="squared_error = -0.0\nsamples = 1\nvalue = 187.7"] ;
139 -> 143 ;
144 [label="squared_error = 0.0\nsamples = 1\nvalue = 187.5"] ;
138 -> 144 ;
145 [label="divf <= 0.5\nsquared_error = 0.0\nsamples = 2\nvalue = 187.5"] ;
137 -> 145 ;
146 [label="squared_error = 0.0\nsamples = 1\nvalue = 187.4"] ;
145 -> 146 ;
147 [label="squared_error = -0.0\nsamples = 1\nvalue = 187.5"] ;
145 -> 147 ;
148 [label="squared_error = -0.0\nsamples = 1\nvalue = 188.4"] ;
136 -> 148 ;
149 [label="squared_error = -0.0\nsamples = 1\nvalue = 186.7"] ;
135 -> 149 ;
150 [label="squared_error = 0.0\nsamples = 1\nvalue = 189.5"] ;
134 -> 150 ;
151 [label="Iges <= 37.8\nsquared_error = 0.2\nsamples = 8\nvalue = 186.9"] ;
133 -> 151 ;
152 [label="squared_error = 0.0\nsamples = 1\nvalue = 186.1"] ;
151 -> 152 ;
153 [label="workTime <= 11228364.0\nsquared_error = 0.1\nsamples = 7\nvalue = 187.0"] ;
151 -> 153 ;
154 [label="workTime <= 11228069.0\nsquared_error = 0.1\nsamples = 2\nvalue = 186.6"] ;
153 -> 154 ;
155 [label="squared_error = 0.0\nsamples = 1\nvalue = 186.8"] ;
154 -> 155 ;
156 [label="squared_error = -0.0\nsamples = 1\nvalue = 186.3"] ;
154 -> 156 ;
157 [label="mainTime <= 2941.5\nsquared_error = 0.0\nsamples = 5\nvalue = 187.2"] ;
153 -> 157 ;
158 [label="mulf <= 0.5\nsquared_error = 0.0\nsamples = 2\nvalue = 187.4"] ;
157 -> 158 ;
159 [label="squared_error = 0.0\nsamples = 1\nvalue = 187.5"] ;
158 -> 159 ;
160 [label="squared_error = 0.0\nsamples = 1\nvalue = 187.3"] ;
158 -> 160 ;
161 [label="Ushunt <= 4.1\nsquared_error = 0.0\nsamples = 3\nvalue = 187.1"] ;
157 -> 161 ;
162 [label="squared_error = 0.0\nsamples = 1\nvalue = 186.9"] ;
161 -> 162 ;
163 [label="subf <= 0.5\nsquared_error = 0.0\nsamples = 2\nvalue = 187.1"] ;
161 -> 163 ;
164 [label="squared_error = 0.0\nsamples = 1\nvalue = 187.1"] ;
163 -> 164 ;
165 [label="squared_error = -0.0\nsamples = 1\nvalue = 187.1"] ;
163 -> 165 ;
166 [label="div <= 0.5\nsquared_error = 234.7\nsamples = 4\nvalue = 200.8"] ;
92 -> 166 ;
167 [label="workTime <= 11235167.0\nsquared_error = 3.4\nsamples = 3\nvalue = 187.2"] ;
166 -> 167 ;
168 [label="squared_error = 0.0\nsamples = 1\nvalue = 183.8"] ;
167 -> 168 ;
169 [label="Iges <= 37.9\nsquared_error = 0.7\nsamples = 2\nvalue = 188.0"] ;
167 -> 169 ;
170 [label="squared_error = 0.0\nsamples = 1\nvalue = 189.5"] ;
169 -> 170 ;
171 [label="squared_error = -0.0\nsamples = 1\nvalue = 187.5"] ;
169 -> 171 ;
172 [label="squared_error = 0.0\nsamples = 1\nvalue = 217.9"] ;
166 -> 172 ;
173 [label="workTime <= 3739569.5\nsquared_error = 109.1\nsamples = 6\nvalue = 203.3"] ;
75 -> 173 ;
174 [label="Iges <= 34.4\nsquared_error = 33.5\nsamples = 5\nvalue = 205.9"] ;
173 -> 174 ;
175 [label="squared_error = 0.0\nsamples = 1\nvalue = 221.9"] ;
174 -> 175 ;
176 [label="add <= 0.5\nsquared_error = 8.7\nsamples = 4\nvalue = 204.3"] ;
174 -> 176 ;
177 [label="Iges <= 35.7\nsquared_error = 1.5\nsamples = 3\nvalue = 202.1"] ;
176 -> 177 ;
178 [label="Idle1Time <= 11247853.0\nsquared_error = 0.7\nsamples = 2\nvalue = 203.1"] ;
177 -> 178 ;
179 [label="squared_error = 0.0\nsamples = 1\nvalue = 204.3"] ;
178 -> 179 ;
180 [label="squared_error = -0.0\nsamples = 1\nvalue = 202.5"] ;
178 -> 180 ;
181 [label="squared_error = -0.0\nsamples = 1\nvalue = 201.0"] ;
177 -> 181 ;
182 [label="squared_error = 0.0\nsamples = 1\nvalue = 207.8"] ;
176 -> 182 ;
183 [label="squared_error = 0.0\nsamples = 1\nvalue = 173.9"] ;
173 -> 183 ;
184 [label="Iges <= 35.4\nsquared_error = 66.7\nsamples = 10\nvalue = 176.3"] ;
74 -> 184 ;
185 [label="workTime <= 3730236.5\nsquared_error = 2.7\nsamples = 9\nvalue = 174.0"] ;
184 -> 185 ;
186 [label="mulf <= 0.5\nsquared_error = 2.1\nsamples = 7\nvalue = 174.6"] ;
185 -> 186 ;
187 [label="Idle1Time <= 11249014.5\nsquared_error = 1.5\nsamples = 6\nvalue = 174.9"] ;
186 -> 187 ;
188 [label="Idle1Time <= 11248599.5\nsquared_error = 0.2\nsamples = 4\nvalue = 175.8"] ;
187 -> 188 ;
189 [label="squared_error = 0.0\nsamples = 1\nvalue = 176.7"] ;
188 -> 189 ;
190 [label="Iges <= 35.1\nsquared_error = 0.0\nsamples = 3\nvalue = 175.6"] ;
188 -> 190 ;
191 [label="Iges <= 34.5\nsquared_error = 0.0\nsamples = 2\nvalue = 175.7"] ;
190 -> 191 ;
192 [label="squared_error = 0.0\nsamples = 1\nvalue = 175.7"] ;
191 -> 192 ;
193 [label="squared_error = -0.0\nsamples = 1\nvalue = 175.9"] ;
191 -> 193 ;
194 [label="squared_error = 0.0\nsamples = 1\nvalue = 175.3"] ;
190 -> 194 ;
195 [label="mul <= 0.5\nsquared_error = 0.0\nsamples = 2\nvalue = 173.4"] ;
187 -> 195 ;
196 [label="squared_error = 0.0\nsamples = 1\nvalue = 173.3"] ;
195 -> 196 ;
197 [label="squared_error = 0.0\nsamples = 1\nvalue = 173.7"] ;
195 -> 197 ;
198 [label="squared_error = -0.0\nsamples = 1\nvalue = 172.2"] ;
186 -> 198 ;
199 [label="workTime <= 3730325.5\nsquared_error = 0.1\nsamples = 2\nvalue = 172.2"] ;
185 -> 199 ;
200 [label="squared_error = 0.0\nsamples = 1\nvalue = 171.7"] ;
199 -> 200 ;
201 [label="squared_error = -0.0\nsamples = 1\nvalue = 172.5"] ;
199 -> 201 ;
202 [label="squared_error = -0.0\nsamples = 1\nvalue = 204.1"] ;
184 -> 202 ;
203 [label="squared_error = 0.0\nsamples = 1\nvalue = 230.8"] ;
73 -> 203 ;
204 [label="Ushunt <= 4.2\nsquared_error = 197.7\nsamples = 202\nvalue = 211.2"] ;
2 -> 204 ;
205 [label="mainTime <= 2989.0\nsquared_error = 91.8\nsamples = 64\nvalue = 201.2"] ;
204 -> 205 ;
206 [label="Ushunt <= 4.0\nsquared_error = 35.4\nsamples = 57\nvalue = 199.3"] ;
205 -> 206 ;
207 [label="mul <= 0.5\nsquared_error = 23.9\nsamples = 10\nvalue = 189.7"] ;
206 -> 207 ;
208 [label="Iges <= 41.3\nsquared_error = 7.0\nsamples = 8\nvalue = 191.8"] ;
207 -> 208 ;
209 [label="mainTime <= 2482.5\nsquared_error = 1.5\nsamples = 7\nvalue = 192.9"] ;
208 -> 209 ;
210 [label="squared_error = 0.0\nsamples = 1\nvalue = 195.8"] ;
209 -> 210 ;
211 [label="Ushunt <= 4.0\nsquared_error = 0.6\nsamples = 6\nvalue = 192.5"] ;
209 -> 211 ;
212 [label="workTime <= 14986616.5\nsquared_error = 0.2\nsamples = 5\nvalue = 192.8"] ;
211 -> 212 ;
213 [label="squared_error = 0.0\nsamples = 1\nvalue = 193.8"] ;
212 -> 213 ;
214 [label="Iges <= 39.1\nsquared_error = 0.1\nsamples = 4\nvalue = 192.6"] ;
212 -> 214 ;
215 [label="squared_error = 0.0\nsamples = 1\nvalue = 193.2"] ;
214 -> 215 ;
216 [label="Iges <= 39.5\nsquared_error = 0.0\nsamples = 3\nvalue = 192.6"] ;
214 -> 216 ;
217 [label="Iges <= 39.2\nsquared_error = 0.0\nsamples = 2\nvalue = 192.5"] ;
216 -> 217 ;
218 [label="squared_error = 0.0\nsamples = 1\nvalue = 192.6"] ;
217 -> 218 ;
219 [label="squared_error = 0.0\nsamples = 1\nvalue = 192.4"] ;
217 -> 219 ;
220 [label="squared_error = 0.0\nsamples = 1\nvalue = 192.8"] ;
216 -> 220 ;
221 [label="squared_error = 0.0\nsamples = 1\nvalue = 190.6"] ;
211 -> 221 ;
222 [label="squared_error = -0.0\nsamples = 1\nvalue = 186.5"] ;
208 -> 222 ;
223 [label="mainTime <= 2955.5\nsquared_error = 4.2\nsamples = 2\nvalue = 181.3"] ;
207 -> 223 ;
224 [label="squared_error = 0.0\nsamples = 1\nvalue = 179.9"] ;
223 -> 224 ;
225 [label="squared_error = 0.0\nsamples = 1\nvalue = 184.3"] ;
223 -> 225 ;
226 [label="div <= 0.5\nsquared_error = 14.2\nsamples = 47\nvalue = 201.4"] ;
206 -> 226 ;
227 [label="divf <= 0.5\nsquared_error = 4.4\nsamples = 44\nvalue = 200.8"] ;
226 -> 227 ;
228 [label="workTime <= 14895554.5\nsquared_error = 2.9\nsamples = 37\nvalue = 200.3"] ;
227 -> 228 ;
229 [label="Iges <= 41.1\nsquared_error = 2.7\nsamples = 24\nvalue = 201.0"] ;
228 -> 229 ;
230 [label="Iges <= 40.7\nsquared_error = 0.7\nsamples = 11\nvalue = 200.2"] ;
229 -> 230 ;
231 [label="Ushunt <= 4.1\nsquared_error = 0.1\nsamples = 3\nvalue = 198.9"] ;
230 -> 231 ;
232 [label="mainTime <= 2919.5\nsquared_error = 0.0\nsamples = 2\nvalue = 198.7"] ;
231 -> 232 ;
233 [label="squared_error = 0.0\nsamples = 1\nvalue = 198.7"] ;
232 -> 233 ;
234 [label="squared_error = 0.0\nsamples = 1\nvalue = 198.8"] ;
232 -> 234 ;
235 [label="squared_error = 0.0\nsamples = 1\nvalue = 199.5"] ;
231 -> 235 ;
236 [label="mainTime <= 2973.0\nsquared_error = 0.3\nsamples = 8\nvalue = 200.5"] ;
230 -> 236 ;
237 [label="Iges <= 41.0\nsquared_error = 0.2\nsamples = 7\nvalue = 200.7"] ;
236 -> 237 ;
238 [label="workTime <= 9267566.0\nsquared_error = 0.1\nsamples = 5\nvalue = 200.9"] ;
237 -> 238 ;
239 [label="sub <= 0.5\nsquared_error = 0.0\nsamples = 3\nvalue = 201.1"] ;
238 -> 239 ;
240 [label="Iges <= 41.0\nsquared_error = 0.0\nsamples = 2\nvalue = 201.0"] ;
239 -> 240 ;
241 [label="squared_error = 0.0\nsamples = 1\nvalue = 201.0"] ;
240 -> 241 ;
242 [label="squared_error = -0.0\nsamples = 1\nvalue = 201.1"] ;
240 -> 242 ;
243 [label="squared_error = -0.0\nsamples = 1\nvalue = 201.3"] ;
239 -> 243 ;
244 [label="noop <= 0.5\nsquared_error = 0.0\nsamples = 2\nvalue = 200.6"] ;
238 -> 244 ;
245 [label="squared_error = 0.0\nsamples = 1\nvalue = 200.6"] ;
244 -> 245 ;
246 [label="squared_error = 0.0\nsamples = 1\nvalue = 200.4"] ;
244 -> 246 ;
247 [label="mainTime <= 1704.5\nsquared_error = 0.0\nsamples = 2\nvalue = 200.1"] ;
237 -> 247 ;
248 [label="squared_error = 0.0\nsamples = 1\nvalue = 200.2"] ;
247 -> 248 ;
249 [label="squared_error = -0.0\nsamples = 1\nvalue = 200.0"] ;
247 -> 249 ;
250 [label="squared_error = -0.0\nsamples = 1\nvalue = 199.6"] ;
236 -> 250 ;
251 [label="mainTime <= 2974.0\nsquared_error = 3.1\nsamples = 13\nvalue = 201.8"] ;
229 -> 251 ;
252 [label="Iges <= 41.5\nsquared_error = 1.4\nsamples = 12\nvalue = 201.5"] ;
251 -> 252 ;
253 [label="workTime <= 3729626.0\nsquared_error = 1.3\nsamples = 9\nvalue = 201.9"] ;
252 -> 253 ;
254 [label="squared_error = 0.0\nsamples = 1\nvalue = 199.2"] ;
253 -> 254 ;
255 [label="subf <= 0.5\nsquared_error = 0.6\nsamples = 8\nvalue = 202.2"] ;
253 -> 255 ;
256 [label="sub <= 0.5\nsquared_error = 0.2\nsamples = 7\nvalue = 202.5"] ;
255 -> 256 ;
257 [label="Ushunt <= 4.1\nsquared_error = 0.1\nsamples = 4\nvalue = 202.1"] ;
256 -> 257 ;
258 [label="mainTime <= 2268.5\nsquared_error = 0.0\nsamples = 3\nvalue = 202.2"] ;
257 -> 258 ;
259 [label="squared_error = 0.0\nsamples = 1\nvalue = 202.3"] ;
258 -> 259 ;
260 [label="Idle1Time <= 94052.0\nsquared_error = 0.0\nsamples = 2\nvalue = 202.2"] ;
258 -> 260 ;
261 [label="squared_error = 0.0\nsamples = 1\nvalue = 202.2"] ;
260 -> 261 ;
262 [label="squared_error = 0.0\nsamples = 1\nvalue = 202.2"] ;
260 -> 262 ;
263 [label="squared_error = 0.0\nsamples = 1\nvalue = 201.7"] ;
257 -> 263 ;
264 [label="mainTime <= 2087.0\nsquared_error = 0.0\nsamples = 3\nvalue = 203.0"] ;
256 -> 264 ;
265 [label="squared_error = 0.0\nsamples = 1\nvalue = 203.2"] ;
264 -> 265 ;
266 [label="Idle1Time <= 7389054.0\nsquared_error = 0.0\nsamples = 2\nvalue = 202.9"] ;
264 -> 266 ;
267 [label="squared_error = 0.0\nsamples = 1\nvalue = 202.9"] ;
266 -> 267 ;
268 [label="squared_error = -0.0\nsamples = 1\nvalue = 202.8"] ;
266 -> 268 ;
269 [label="squared_error = -0.0\nsamples = 1\nvalue = 200.8"] ;
255 -> 269 ;
270 [label="sub <= 0.5\nsquared_error = 0.3\nsamples = 3\nvalue = 200.6"] ;
252 -> 270 ;
271 [label="Iges <= 43.1\nsquared_error = 0.1\nsamples = 2\nvalue = 200.0"] ;
270 -> 271 ;
272 [label="squared_error = 0.0\nsamples = 1\nvalue = 199.7"] ;
271 -> 272 ;
273 [label="squared_error = -0.0\nsamples = 1\nvalue = 200.3"] ;
271 -> 273 ;
274 [label="squared_error = 0.0\nsamples = 1\nvalue = 201.0"] ;
270 -> 274 ;
275 [label="squared_error = -0.0\nsamples = 1\nvalue = 207.3"] ;
251 -> 275 ;
276 [label="Idle1Time <= 92794.0\nsquared_error = 1.4\nsamples = 13\nvalue = 199.2"] ;
228 -> 276 ;
277 [label="Iges <= 41.3\nsquared_error = 1.2\nsamples = 8\nvalue = 199.9"] ;
276 -> 277 ;
278 [label="Idle1Time <= 92547.0\nsquared_error = 0.6\nsamples = 5\nvalue = 200.6"] ;
277 -> 278 ;
279 [label="Iges <= 40.4\nsquared_error = 0.1\nsamples = 4\nvalue = 200.3"] ;
278 -> 279 ;
280 [label="squared_error = 0.0\nsamples = 1\nvalue = 200.6"] ;
279 -> 280 ;
281 [label="Ushunt <= 4.1\nsquared_error = 0.0\nsamples = 3\nvalue = 200.2"] ;
279 -> 281 ;
282 [label="squared_error = 0.0\nsamples = 1\nvalue = 199.9"] ;
281 -> 282 ;
283 [label="mainTime <= 2894.5\nsquared_error = 0.0\nsamples = 2\nvalue = 200.2"] ;
281 -> 283 ;
284 [label="squared_error = 0.0\nsamples = 1\nvalue = 200.2"] ;
283 -> 284 ;
285 [label="squared_error = 0.0\nsamples = 1\nvalue = 200.2"] ;
283 -> 285 ;
286 [label="squared_error = 0.0\nsamples = 1\nvalue = 202.5"] ;
278 -> 286 ;
287 [label="mainTime <= 2917.0\nsquared_error = 0.1\nsamples = 3\nvalue = 198.8"] ;
277 -> 287 ;
288 [label="mainTime <= 2902.0\nsquared_error = 0.0\nsamples = 2\nvalue = 199.1"] ;
287 -> 288 ;
289 [label="squared_error = 0.0\nsamples = 1\nvalue = 199.2"] ;
288 -> 289 ;
290 [label="squared_error = 0.0\nsamples = 1\nvalue = 199.0"] ;
288 -> 290 ;
291 [label="squared_error = 0.0\nsamples = 1\nvalue = 198.3"] ;
287 -> 291 ;
292 [label="workTime <= 14895643.0\nsquared_error = 0.2\nsamples = 5\nvalue = 198.3"] ;
276 -> 292 ;
293 [label="Ushunt <= 4.1\nsquared_error = 0.0\nsamples = 2\nvalue = 199.1"] ;
292 -> 293 ;
294 [label="squared_error = 0.0\nsamples = 1\nvalue = 199.0"] ;
293 -> 294 ;
295 [label="squared_error = -0.0\nsamples = 1\nvalue = 199.2"] ;
293 -> 295 ;
296 [label="Ushunt <= 4.1\nsquared_error = 0.0\nsamples = 3\nvalue = 198.1"] ;
292 -> 296 ;
297 [label="Idle1Time <= 93130.0\nsquared_error = 0.0\nsamples = 2\nvalue = 198.0"] ;
296 -> 297 ;
298 [label="squared_error = 0.0\nsamples = 1\nvalue = 198.0"] ;
297 -> 298 ;
299 [label="squared_error = -0.0\nsamples = 1\nvalue = 198.0"] ;
297 -> 299 ;
300 [label="squared_error = 0.0\nsamples = 1\nvalue = 198.1"] ;
296 -> 300 ;
301 [label="Iges <= 41.1\nsquared_error = 5.7\nsamples = 7\nvalue = 203.1"] ;
227 -> 301 ;
302 [label="Idle1Time <= 45543.5\nsquared_error = 0.0\nsamples = 2\nvalue = 200.5"] ;
301 -> 302 ;
303 [label="squared_error = 0.0\nsamples = 1\nvalue = 200.4"] ;
302 -> 303 ;
304 [label="squared_error = 0.0\nsamples = 1\nvalue = 200.7"] ;
302 -> 304 ;
305 [label="mainTime <= 2938.5\nsquared_error = 2.9\nsamples = 5\nvalue = 204.6"] ;
301 -> 305 ;
306 [label="Iges <= 41.4\nsquared_error = 0.7\nsamples = 3\nvalue = 203.7"] ;
305 -> 306 ;
307 [label="Idle1Time <= 46319.0\nsquared_error = 0.0\nsamples = 2\nvalue = 202.6"] ;
306 -> 307 ;
308 [label="squared_error = 0.0\nsamples = 1\nvalue = 202.8"] ;
307 -> 308 ;
309 [label="squared_error = 0.0\nsamples = 1\nvalue = 202.5"] ;
307 -> 309 ;
310 [label="squared_error = 0.0\nsamples = 1\nvalue = 204.3"] ;
306 -> 310 ;
311 [label="Ushunt <= 4.2\nsquared_error = 0.6\nsamples = 2\nvalue = 207.0"] ;
305 -> 311 ;
312 [label="squared_error = 0.0\nsamples = 1\nvalue = 207.8"] ;
311 -> 312 ;
313 [label="squared_error = 0.0\nsamples = 1\nvalue = 206.2"] ;
311 -> 313 ;
314 [label="workTime <= 5609737.0\nsquared_error = 70.2\nsamples = 3\nvalue = 211.4"] ;
226 -> 314 ;
315 [label="squared_error = 0.0\nsamples = 1\nvalue = 219.4"] ;
314 -> 315 ;
316 [label="mainTime <= 2938.5\nsquared_error = 10.9\nsamples = 2\nvalue = 203.3"] ;
314 -> 316 ;
317 [label="squared_error = 0.0\nsamples = 1\nvalue = 206.7"] ;
316 -> 317 ;
318 [label="squared_error = 0.0\nsamples = 1\nvalue = 200.0"] ;
316 -> 318 ;
319 [label="Iges <= 40.9\nsquared_error = 286.6\nsamples = 7\nvalue = 217.3"] ;
205 -> 319 ;
320 [label="workTime <= 3727961.5\nsquared_error = 227.0\nsamples = 2\nvalue = 191.9"] ;
319 -> 320 ;
321 [label="squared_error = 0.0\nsamples = 1\nvalue = 207.0"] ;
320 -> 321 ;
322 [label="squared_error = -0.0\nsamples = 1\nvalue = 176.9"] ;
320 -> 322 ;
323 [label="workTime <= 5614156.5\nsquared_error = 100.0\nsamples = 5\nvalue = 223.7"] ;
319 -> 323 ;
324 [label="mainTime <= 2995.0\nsquared_error = 0.0\nsamples = 2\nvalue = 233.2"] ;
323 -> 324 ;
325 [label="squared_error = 0.0\nsamples = 1\nvalue = 233.2"] ;
324 -> 325 ;
326 [label="squared_error = 0.0\nsamples = 1\nvalue = 233.3"] ;
324 -> 326 ;
327 [label="mainTime <= 3038.0\nsquared_error = 17.0\nsamples = 3\nvalue = 214.1"] ;
323 -> 327 ;
328 [label="Ushunt <= 3.8\nsquared_error = 0.0\nsamples = 2\nvalue = 216.5"] ;
327 -> 328 ;
329 [label="squared_error = 0.0\nsamples = 1\nvalue = 216.8"] ;
328 -> 329 ;
330 [label="squared_error = -0.0\nsamples = 1\nvalue = 216.3"] ;
328 -> 330 ;
331 [label="squared_error = -0.0\nsamples = 1\nvalue = 207.0"] ;
327 -> 331 ;
332 [label="Iges <= 41.1\nsquared_error = 179.5\nsamples = 138\nvalue = 215.8"] ;
204 -> 332 ;
333 [label="Iges <= 40.9\nsquared_error = 271.9\nsamples = 42\nvalue = 210.3"] ;
332 -> 333 ;
334 [label="Iges <= 40.7\nsquared_error = 341.8\nsamples = 30\nvalue = 214.1"] ;
333 -> 334 ;
335 [label="Idle1Time <= 11340828.0\nsquared_error = 306.0\nsamples = 23\nvalue = 210.3"] ;
334 -> 335 ;
336 [label="Iges <= 38.7\nsquared_error = 209.0\nsamples = 20\nvalue = 208.1"] ;
335 -> 336 ;
337 [label="Iges <= 38.5\nsquared_error = 3.6\nsamples = 3\nvalue = 224.4"] ;
336 -> 337 ;
338 [label="Iges <= 38.5\nsquared_error = 1.6\nsamples = 2\nvalue = 225.3"] ;
337 -> 338 ;
339 [label="squared_error = 0.0\nsamples = 1\nvalue = 227.1"] ;
338 -> 339 ;
340 [label="squared_error = 0.0\nsamples = 1\nvalue = 224.4"] ;
338 -> 340 ;
341 [label="squared_error = -0.0\nsamples = 1\nvalue = 221.7"] ;
337 -> 341 ;
342 [label="Ushunt <= 5.3\nsquared_error = 193.2\nsamples = 17\nvalue = 205.6"] ;
336 -> 342 ;
343 [label="subf <= 0.5\nsquared_error = 139.3\nsamples = 14\nvalue = 203.5"] ;
342 -> 343 ;
344 [label="Iges <= 38.9\nsquared_error = 109.5\nsamples = 13\nvalue = 202.3"] ;
343 -> 344 ;
345 [label="squared_error = 0.0\nsamples = 1\nvalue = 192.2"] ;
344 -> 345 ;
346 [label="Iges <= 39.3\nsquared_error = 108.1\nsamples = 12\nvalue = 203.9"] ;
344 -> 346 ;
347 [label="squared_error = 0.0\nsamples = 1\nvalue = 235.7"] ;
346 -> 347 ;
348 [label="Iges <= 40.6\nsquared_error = 54.8\nsamples = 11\nvalue = 202.1"] ;
346 -> 348 ;
349 [label="Ushunt <= 4.9\nsquared_error = 13.0\nsamples = 8\nvalue = 200.0"] ;
348 -> 349 ;
350 [label="div <= 0.5\nsquared_error = 5.3\nsamples = 6\nvalue = 198.5"] ;
349 -> 350 ;
351 [label="Idle1Time <= 11293486.0\nsquared_error = 1.6\nsamples = 4\nvalue = 199.7"] ;
350 -> 351 ;
352 [label="workTime <= 9312799.5\nsquared_error = 0.1\nsamples = 3\nvalue = 200.6"] ;
351 -> 352 ;
353 [label="squared_error = 0.0\nsamples = 1\nvalue = 201.2"] ;
352 -> 353 ;
354 [label="Ushunt <= 4.8\nsquared_error = 0.0\nsamples = 2\nvalue = 200.5"] ;
352 -> 354 ;
355 [label="squared_error = 0.0\nsamples = 1\nvalue = 200.4"] ;
354 -> 355 ;
356 [label="squared_error = 0.0\nsamples = 1\nvalue = 200.6"] ;
354 -> 356 ;
357 [label="squared_error = -0.0\nsamples = 1\nvalue = 198.1"] ;
351 -> 357 ;
358 [label="Ushunt <= 4.8\nsquared_error = 1.6\nsamples = 2\nvalue = 195.3"] ;
350 -> 358 ;
359 [label="squared_error = 0.0\nsamples = 1\nvalue = 194.4"] ;
358 -> 359 ;
360 [label="squared_error = 0.0\nsamples = 1\nvalue = 197.1"] ;
358 -> 360 ;
361 [label="Iges <= 40.4\nsquared_error = 0.7\nsamples = 2\nvalue = 205.7"] ;
349 -> 361 ;
362 [label="squared_error = 0.0\nsamples = 1\nvalue = 204.5"] ;
361 -> 362 ;
363 [label="squared_error = 0.0\nsamples = 1\nvalue = 206.2"] ;
361 -> 363 ;
364 [label="workTime <= 9341670.0\nsquared_error = 133.0\nsamples = 3\nvalue = 209.4"] ;
348 -> 364 ;
365 [label="workTime <= 3734157.0\nsquared_error = 1.3\nsamples = 2\nvalue = 202.7"] ;
364 -> 365 ;
366 [label="squared_error = 0.0\nsamples = 1\nvalue = 203.5"] ;
365 -> 366 ;
367 [label="squared_error = 0.0\nsamples = 1\nvalue = 201.2"] ;
365 -> 367 ;
368 [label="squared_error = 0.0\nsamples = 1\nvalue = 229.3"] ;
364 -> 368 ;
369 [label="squared_error = -0.0\nsamples = 1\nvalue = 231.1"] ;
343 -> 369 ;
370 [label="Idle1Time <= 7498904.0\nsquared_error = 328.5\nsamples = 3\nvalue = 221.2"] ;
342 -> 370 ;
371 [label="divf <= 0.5\nsquared_error = 39.2\nsamples = 2\nvalue = 208.9"] ;
370 -> 371 ;
372 [label="squared_error = 0.0\nsamples = 1\nvalue = 202.7"] ;
371 -> 372 ;
373 [label="squared_error = 0.0\nsamples = 1\nvalue = 215.2"] ;
371 -> 373 ;
374 [label="squared_error = 0.0\nsamples = 1\nvalue = 245.8"] ;
370 -> 374 ;
375 [label="Idle1Time <= 14685481.0\nsquared_error = 731.5\nsamples = 3\nvalue = 232.5"] ;
335 -> 375 ;
376 [label="mainTime <= 1811.0\nsquared_error = 23.2\nsamples = 2\nvalue = 251.5"] ;
375 -> 376 ;
377 [label="squared_error = 0.0\nsamples = 1\nvalue = 246.6"] ;
376 -> 377 ;
378 [label="squared_error = 0.0\nsamples = 1\nvalue = 256.3"] ;
376 -> 378 ;
379 [label="squared_error = -0.0\nsamples = 1\nvalue = 194.7"] ;
375 -> 379 ;
380 [label="Idle1Time <= 11249159.5\nsquared_error = 254.7\nsamples = 7\nvalue = 226.7"] ;
334 -> 380 ;
381 [label="noop <= 0.5\nsquared_error = 72.6\nsamples = 5\nvalue = 236.0"] ;
380 -> 381 ;
382 [label="add <= 0.5\nsquared_error = 36.6\nsamples = 4\nvalue = 238.6"] ;
381 -> 382 ;
383 [label="sub <= 0.5\nsquared_error = 10.6\nsamples = 3\nvalue = 236.3"] ;
382 -> 383 ;
384 [label="divf <= 0.5\nsquared_error = 2.5\nsamples = 2\nvalue = 233.8"] ;
383 -> 384 ;
385 [label="squared_error = 0.0\nsamples = 1\nvalue = 234.9"] ;
384 -> 385 ;
386 [label="squared_error = 0.0\nsamples = 1\nvalue = 231.6"] ;
384 -> 386 ;
387 [label="squared_error = -0.0\nsamples = 1\nvalue = 240.0"] ;
383 -> 387 ;
388 [label="squared_error = 0.0\nsamples = 1\nvalue = 250.4"] ;
382 -> 388 ;
389 [label="squared_error = -0.0\nsamples = 1\nvalue = 220.3"] ;
381 -> 389 ;
390 [label="mainTime <= 1910.0\nsquared_error = 1.2\nsamples = 2\nvalue = 204.9"] ;
380 -> 390 ;
391 [label="squared_error = 0.0\nsamples = 1\nvalue = 203.3"] ;
390 -> 391 ;
392 [label="squared_error = 0.0\nsamples = 1\nvalue = 205.7"] ;
390 -> 392 ;
393 [label="workTime <= 3730514.0\nsquared_error = 7.3\nsamples = 12\nvalue = 201.7"] ;
333 -> 393 ;
394 [label="div <= 0.5\nsquared_error = 3.7\nsamples = 9\nvalue = 203.4"] ;
393 -> 394 ;
395 [label="Ushunt <= 4.7\nsquared_error = 1.7\nsamples = 8\nvalue = 203.9"] ;
394 -> 395 ;
396 [label="addf <= 0.5\nsquared_error = 0.1\nsamples = 2\nvalue = 202.5"] ;
395 -> 396 ;
397 [label="squared_error = 0.0\nsamples = 1\nvalue = 202.8"] ;
396 -> 397 ;
398 [label="squared_error = 0.0\nsamples = 1\nvalue = 202.2"] ;
396 -> 398 ;
399 [label="Iges <= 41.0\nsquared_error = 1.0\nsamples = 6\nvalue = 204.6"] ;
395 -> 399 ;
400 [label="Iges <= 40.9\nsquared_error = 0.2\nsamples = 2\nvalue = 203.1"] ;
399 -> 400 ;
401 [label="squared_error = 0.0\nsamples = 1\nvalue = 203.6"] ;
400 -> 401 ;
402 [label="squared_error = 0.0\nsamples = 1\nvalue = 202.7"] ;
400 -> 402 ;
403 [label="workTime <= 3729702.0\nsquared_error = 0.0\nsamples = 4\nvalue = 205.2"] ;
399 -> 403 ;
404 [label="squared_error = 0.0\nsamples = 1\nvalue = 205.6"] ;
403 -> 404 ;
405 [label="Iges <= 41.1\nsquared_error = 0.0\nsamples = 3\nvalue = 205.1"] ;
403 -> 405 ;
406 [label="Idle1Time <= 12968953.0\nsquared_error = 0.0\nsamples = 2\nvalue = 205.1"] ;
405 -> 406 ;
407 [label="squared_error = 0.0\nsamples = 1\nvalue = 205.1"] ;
406 -> 407 ;
408 [label="squared_error = 0.0\nsamples = 1\nvalue = 205.1"] ;
406 -> 408 ;
409 [label="squared_error = -0.0\nsamples = 1\nvalue = 205.3"] ;
405 -> 409 ;
410 [label="squared_error = 0.0\nsamples = 1\nvalue = 198.5"] ;
394 -> 410 ;
411 [label="div <= 0.5\nsquared_error = 0.1\nsamples = 3\nvalue = 198.8"] ;
393 -> 411 ;
412 [label="Ushunt <= 4.8\nsquared_error = 0.0\nsamples = 2\nvalue = 198.5"] ;
411 -> 412 ;
413 [label="squared_error = 0.0\nsamples = 1\nvalue = 198.6"] ;
412 -> 413 ;
414 [label="squared_error = 0.0\nsamples = 1\nvalue = 198.2"] ;
412 -> 414 ;
415 [label="squared_error = 0.0\nsamples = 1\nvalue = 199.0"] ;
411 -> 415 ;
416 [label="Ushunt <= 4.7\nsquared_error = 121.2\nsamples = 96\nvalue = 218.1"] ;
332 -> 416 ;
417 [label="mainTime <= 2994.0\nsquared_error = 38.7\nsamples = 63\nvalue = 214.6"] ;
416 -> 417 ;
418 [label="Iges <= 42.9\nsquared_error = 30.8\nsamples = 61\nvalue = 214.1"] ;
417 -> 418 ;
419 [label="mainTime <= 2967.5\nsquared_error = 6.0\nsamples = 8\nvalue = 208.5"] ;
418 -> 419 ;
420 [label="workTime <= 7489669.5\nsquared_error = 1.4\nsamples = 6\nvalue = 209.8"] ;
419 -> 420 ;
421 [label="mainTime <= 2948.5\nsquared_error = 0.5\nsamples = 4\nvalue = 210.6"] ;
420 -> 421 ;
422 [label="Ushunt <= 4.3\nsquared_error = 0.2\nsamples = 3\nvalue = 210.9"] ;
421 -> 422 ;
423 [label="squared_error = 0.0\nsamples = 1\nvalue = 211.6"] ;
422 -> 423 ;
424 [label="Iges <= 42.0\nsquared_error = 0.0\nsamples = 2\nvalue = 210.7"] ;
422 -> 424 ;
425 [label="squared_error = 0.0\nsamples = 1\nvalue = 210.8"] ;
424 -> 425 ;
426 [label="squared_error = -0.0\nsamples = 1\nvalue = 210.4"] ;
424 -> 426 ;
427 [label="squared_error = -0.0\nsamples = 1\nvalue = 209.4"] ;
421 -> 427 ;
428 [label="Ushunt <= 4.3\nsquared_error = 0.2\nsamples = 2\nvalue = 208.6"] ;
420 -> 428 ;
429 [label="squared_error = 0.0\nsamples = 1\nvalue = 208.0"] ;
428 -> 429 ;
430 [label="squared_error = -0.0\nsamples = 1\nvalue = 208.8"] ;
428 -> 430 ;
431 [label="Ushunt <= 4.3\nsquared_error = 0.3\nsamples = 2\nvalue = 204.9"] ;
419 -> 431 ;
432 [label="squared_error = 0.0\nsamples = 1\nvalue = 204.1"] ;
431 -> 432 ;
433 [label="squared_error = 0.0\nsamples = 1\nvalue = 205.3"] ;
431 -> 433 ;
434 [label="Iges <= 43.0\nsquared_error = 29.2\nsamples = 53\nvalue = 214.9"] ;
418 -> 434 ;
435 [label="squared_error = 0.0\nsamples = 1\nvalue = 236.3"] ;
434 -> 435 ;
436 [label="noop <= 0.5\nsquared_error = 23.7\nsamples = 52\nvalue = 214.7"] ;
434 -> 436 ;
437 [label="workTime <= 7488829.5\nsquared_error = 11.0\nsamples = 47\nvalue = 215.4"] ;
436 -> 437 ;
438 [label="Idle1Time <= 14686227.0\nsquared_error = 5.9\nsamples = 30\nvalue = 213.9"] ;
437 -> 438 ;
439 [label="workTime <= 7393576.5\nsquared_error = 4.4\nsamples = 23\nvalue = 214.7"] ;
438 -> 439 ;
440 [label="mul <= 0.5\nsquared_error = 4.5\nsamples = 15\nvalue = 213.9"] ;
439 -> 440 ;
441 [label="workTime <= 7393150.0\nsquared_error = 3.3\nsamples = 11\nvalue = 214.7"] ;
440 -> 441 ;
442 [label="Ushunt <= 4.4\nsquared_error = 0.7\nsamples = 3\nvalue = 216.8"] ;
441 -> 442 ;
443 [label="squared_error = 0.0\nsamples = 1\nvalue = 215.8"] ;
442 -> 443 ;
444 [label="mulf <= 0.5\nsquared_error = 0.2\nsamples = 2\nvalue = 217.3"] ;
442 -> 444 ;
445 [label="squared_error = 0.0\nsamples = 1\nvalue = 216.9"] ;
444 -> 445 ;
446 [label="squared_error = -0.0\nsamples = 1\nvalue = 217.7"] ;
444 -> 446 ;
447 [label="mainTime <= 2071.0\nsquared_error = 2.6\nsamples = 8\nvalue = 214.2"] ;
441 -> 447 ;
448 [label="mainTime <= 2057.5\nsquared_error = 0.1\nsamples = 2\nvalue = 211.5"] ;
447 -> 448 ;
449 [label="squared_error = 0.0\nsamples = 1\nvalue = 211.2"] ;
448 -> 449 ;
450 [label="squared_error = -0.0\nsamples = 1\nvalue = 211.8"] ;
448 -> 450 ;
451 [label="Iges <= 43.3\nsquared_error = 1.3\nsamples = 6\nvalue = 214.7"] ;
447 -> 451 ;
452 [label="squared_error = 0.0\nsamples = 1\nvalue = 212.3"] ;
451 -> 452 ;
453 [label="Ushunt <= 4.4\nsquared_error = 0.7\nsamples = 5\nvalue = 215.0"] ;
451 -> 453 ;
454 [label="mainTime <= 2104.5\nsquared_error = 0.3\nsamples = 3\nvalue = 214.5"] ;
453 -> 454 ;
455 [label="mulf <= 0.5\nsquared_error = 0.0\nsamples = 2\nvalue = 214.1"] ;
454 -> 455 ;
456 [label="squared_error = 0.0\nsamples = 1\nvalue = 213.9"] ;
455 -> 456 ;
457 [label="squared_error = 0.0\nsamples = 1\nvalue = 214.3"] ;
455 -> 457 ;
458 [label="squared_error = -0.0\nsamples = 1\nvalue = 215.2"] ;
454 -> 458 ;
459 [label="workTime <= 7393401.0\nsquared_error = 0.0\nsamples = 2\nvalue = 216.0"] ;
453 -> 459 ;
460 [label="squared_error = 0.0\nsamples = 1\nvalue = 215.9"] ;
459 -> 460 ;
461 [label="squared_error = -0.0\nsamples = 1\nvalue = 216.0"] ;
459 -> 461 ;
462 [label="workTime <= 7392020.5\nsquared_error = 2.4\nsamples = 4\nvalue = 212.1"] ;
440 -> 462 ;
463 [label="squared_error = 0.0\nsamples = 1\nvalue = 214.4"] ;
462 -> 463 ;
464 [label="Idle1Time <= 7594911.0\nsquared_error = 1.7\nsamples = 3\nvalue = 211.7"] ;
462 -> 464 ;
465 [label="squared_error = 0.0\nsamples = 1\nvalue = 213.5"] ;
464 -> 465 ;
466 [label="workTime <= 7392799.0\nsquared_error = 0.0\nsamples = 2\nvalue = 210.7"] ;
464 -> 466 ;
467 [label="squared_error = 0.0\nsamples = 1\nvalue = 210.7"] ;
466 -> 467 ;
468 [label="squared_error = 0.0\nsamples = 1\nvalue = 210.7"] ;
466 -> 468 ;
469 [label="mainTime <= 2106.0\nsquared_error = 0.8\nsamples = 8\nvalue = 216.2"] ;
439 -> 469 ;
470 [label="mainTime <= 1794.5\nsquared_error = 0.5\nsamples = 5\nvalue = 215.7"] ;
469 -> 470 ;
471 [label="squared_error = 0.0\nsamples = 1\nvalue = 216.8"] ;
470 -> 471 ;
472 [label="workTime <= 7443568.5\nsquared_error = 0.1\nsamples = 4\nvalue = 215.3"] ;
470 -> 472 ;
473 [label="Ushunt <= 4.5\nsquared_error = 0.0\nsamples = 2\nvalue = 215.5"] ;
472 -> 473 ;
474 [label="squared_error = 0.0\nsamples = 1\nvalue = 215.6"] ;
473 -> 474 ;
475 [label="squared_error = 0.0\nsamples = 1\nvalue = 215.5"] ;
473 -> 475 ;
476 [label="workTime <= 7443577.5\nsquared_error = 0.0\nsamples = 2\nvalue = 215.0"] ;
472 -> 476 ;
477 [label="squared_error = 0.0\nsamples = 1\nvalue = 215.2"] ;
476 -> 477 ;
478 [label="squared_error = 0.0\nsamples = 1\nvalue = 214.8"] ;
476 -> 478 ;
479 [label="Ushunt <= 4.4\nsquared_error = 0.3\nsamples = 3\nvalue = 217.0"] ;
469 -> 479 ;
480 [label="squared_error = 0.0\nsamples = 1\nvalue = 216.1"] ;
479 -> 480 ;
481 [label="Idle1Time <= 7595068.5\nsquared_error = 0.0\nsamples = 2\nvalue = 217.3"] ;
479 -> 481 ;
482 [label="squared_error = 0.0\nsamples = 1\nvalue = 217.3"] ;
481 -> 482 ;
483 [label="squared_error = -0.0\nsamples = 1\nvalue = 217.4"] ;
481 -> 483 ;
484 [label="Idle1Time <= 14687788.5\nsquared_error = 4.3\nsamples = 7\nvalue = 211.9"] ;
438 -> 484 ;
485 [label="squared_error = 0.0\nsamples = 1\nvalue = 208.3"] ;
484 -> 485 ;
486 [label="Iges <= 43.6\nsquared_error = 2.1\nsamples = 6\nvalue = 212.6"] ;
484 -> 486 ;
487 [label="Iges <= 43.4\nsquared_error = 0.2\nsamples = 3\nvalue = 213.7"] ;
486 -> 487 ;
488 [label="squared_error = 0.0\nsamples = 1\nvalue = 214.6"] ;
487 -> 488 ;
489 [label="Ushunt <= 4.4\nsquared_error = 0.0\nsamples = 2\nvalue = 213.6"] ;
487 -> 489 ;
490 [label="squared_error = -0.0\nsamples = 1\nvalue = 213.7"] ;
489 -> 490 ;
491 [label="squared_error = 0.0\nsamples = 1\nvalue = 213.4"] ;
489 -> 491 ;
492 [label="Idle1Time <= 14695748.0\nsquared_error = 0.3\nsamples = 3\nvalue = 210.9"] ;
486 -> 492 ;
493 [label="squared_error = 0.0\nsamples = 1\nvalue = 211.8"] ;
492 -> 493 ;
494 [label="sub <= 0.5\nsquared_error = 0.0\nsamples = 2\nvalue = 210.6"] ;
492 -> 494 ;
495 [label="squared_error = 0.0\nsamples = 1\nvalue = 210.7"] ;
494 -> 495 ;
496 [label="squared_error = 0.0\nsamples = 1\nvalue = 210.6"] ;
494 -> 496 ;
497 [label="Iges <= 44.2\nsquared_error = 9.4\nsamples = 17\nvalue = 218.1"] ;
437 -> 497 ;
498 [label="Iges <= 43.5\nsquared_error = 3.1\nsamples = 13\nvalue = 217.1"] ;
497 -> 498 ;
499 [label="Idle1Time <= 5624022.5\nsquared_error = 0.1\nsamples = 2\nvalue = 213.9"] ;
498 -> 499 ;
500 [label="squared_error = 0.0\nsamples = 1\nvalue = 214.1"] ;
499 -> 500 ;
501 [label="squared_error = -0.0\nsamples = 1\nvalue = 213.6"] ;
499 -> 501 ;
502 [label="mul <= 0.5\nsquared_error = 2.0\nsamples = 11\nvalue = 217.5"] ;
498 -> 502 ;
503 [label="Ushunt <= 4.3\nsquared_error = 1.3\nsamples = 10\nvalue = 217.2"] ;
502 -> 503 ;
504 [label="squared_error = 0.0\nsamples = 1\nvalue = 220.4"] ;
503 -> 504 ;
505 [label="mainTime <= 1857.0\nsquared_error = 0.6\nsamples = 9\nvalue = 216.9"] ;
503 -> 505 ;
506 [label="squared_error = 0.0\nsamples = 1\nvalue = 218.0"] ;
505 -> 506 ;
507 [label="mainTime <= 2945.0\nsquared_error = 0.3\nsamples = 8\nvalue = 216.7"] ;
505 -> 507 ;
508 [label="mainTime <= 2940.0\nsquared_error = 0.2\nsamples = 6\nvalue = 216.3"] ;
507 -> 508 ;
509 [label="Ushunt <= 4.4\nsquared_error = 0.2\nsamples = 5\nvalue = 216.5"] ;
508 -> 509 ;
510 [label="squared_error = 0.0\nsamples = 1\nvalue = 215.7"] ;
509 -> 510 ;
511 [label="workTime <= 11228769.0\nsquared_error = 0.0\nsamples = 4\nvalue = 216.6"] ;
509 -> 511 ;
512 [label="divf <= 0.5\nsquared_error = 0.0\nsamples = 3\nvalue = 216.6"] ;
511 -> 512 ;
513 [label="squared_error = 0.0\nsamples = 1\nvalue = 216.4"] ;
512 -> 513 ;
514 [label="Ushunt <= 4.4\nsquared_error = 0.0\nsamples = 2\nvalue = 216.6"] ;
512 -> 514 ;
515 [label="squared_error = 0.0\nsamples = 1\nvalue = 216.6"] ;
514 -> 515 ;
516 [label="squared_error = -0.0\nsamples = 1\nvalue = 216.6"] ;
514 -> 516 ;
517 [label="squared_error = -0.0\nsamples = 1\nvalue = 216.9"] ;
511 -> 517 ;
518 [label="squared_error = -0.0\nsamples = 1\nvalue = 215.6"] ;
508 -> 518 ;
519 [label="mainTime <= 2968.0\nsquared_error = 0.1\nsamples = 2\nvalue = 217.2"] ;
507 -> 519 ;
520 [label="squared_error = 0.0\nsamples = 1\nvalue = 217.0"] ;
519 -> 520 ;
521 [label="squared_error = -0.0\nsamples = 1\nvalue = 217.7"] ;
519 -> 521 ;
522 [label="squared_error = 0.0\nsamples = 1\nvalue = 220.1"] ;
502 -> 522 ;
523 [label="mainTime <= 2975.5\nsquared_error = 17.9\nsamples = 4\nvalue = 221.1"] ;
497 -> 523 ;
524 [label="workTime <= 11228578.5\nsquared_error = 3.3\nsamples = 3\nvalue = 219.3"] ;
523 -> 524 ;
525 [label="workTime <= 11228201.5\nsquared_error = 0.0\nsamples = 2\nvalue = 220.8"] ;
524 -> 525 ;
526 [label="squared_error = 0.0\nsamples = 1\nvalue = 220.8"] ;
525 -> 526 ;
527 [label="squared_error = 0.0\nsamples = 1\nvalue = 220.8"] ;
525 -> 527 ;
528 [label="squared_error = 0.0\nsamples = 1\nvalue = 217.1"] ;
524 -> 528 ;
529 [label="squared_error = -0.0\nsamples = 1\nvalue = 229.8"] ;
523 -> 529 ;
530 [label="MIN_FREQ <= 120.0\nsquared_error = 87.9\nsamples = 5\nvalue = 208.1"] ;
436 -> 530 ;
531 [label="Idle1Time <= 7543672.0\nsquared_error = 33.4\nsamples = 2\nvalue = 197.0"] ;
530 -> 531 ;
532 [label="squared_error = 0.0\nsamples = 1\nvalue = 188.8"] ;
531 -> 532 ;
533 [label="squared_error = 0.0\nsamples = 1\nvalue = 201.1"] ;
531 -> 533 ;
534 [label="Ushunt <= 4.4\nsquared_error = 3.4\nsamples = 3\nvalue = 214.7"] ;
530 -> 534 ;
535 [label="squared_error = 0.0\nsamples = 1\nvalue = 212.8"] ;
534 -> 535 ;
536 [label="workTime <= 7396359.0\nsquared_error = 1.4\nsamples = 2\nvalue = 216.0"] ;
534 -> 536 ;
537 [label="squared_error = 0.0\nsamples = 1\nvalue = 215.1"] ;
536 -> 537 ;
538 [label="squared_error = -0.0\nsamples = 1\nvalue = 217.7"] ;
536 -> 538 ;
539 [label="subf <= 0.5\nsquared_error = 68.5\nsamples = 2\nvalue = 228.9"] ;
417 -> 539 ;
540 [label="squared_error = 0.0\nsamples = 1\nvalue = 234.7"] ;
539 -> 540 ;
541 [label="squared_error = -0.0\nsamples = 1\nvalue = 217.2"] ;
539 -> 541 ;
542 [label="mainTime <= 2035.5\nsquared_error = 209.0\nsamples = 33\nvalue = 224.8"] ;
416 -> 542 ;
543 [label="Ushunt <= 4.7\nsquared_error = 91.6\nsamples = 7\nvalue = 209.2"] ;
542 -> 543 ;
544 [label="squared_error = 0.0\nsamples = 1\nvalue = 228.3"] ;
543 -> 544 ;
545 [label="Idle1Time <= 9417395.5\nsquared_error = 13.3\nsamples = 6\nvalue = 205.0"] ;
543 -> 545 ;
546 [label="squared_error = 0.0\nsamples = 1\nvalue = 211.0"] ;
545 -> 546 ;
547 [label="mainTime <= 1519.5\nsquared_error = 3.7\nsamples = 5\nvalue = 203.3"] ;
545 -> 547 ;
548 [label="mul <= 0.5\nsquared_error = 5.1\nsamples = 2\nvalue = 205.5"] ;
547 -> 548 ;
549 [label="squared_error = 0.0\nsamples = 1\nvalue = 207.8"] ;
548 -> 549 ;
550 [label="squared_error = 0.0\nsamples = 1\nvalue = 203.2"] ;
548 -> 550 ;
551 [label="mulf <= 0.5\nsquared_error = 0.4\nsamples = 3\nvalue = 202.4"] ;
547 -> 551 ;
552 [label="mainTime <= 1826.0\nsquared_error = 0.0\nsamples = 2\nvalue = 201.9"] ;
551 -> 552 ;
553 [label="squared_error = 0.0\nsamples = 1\nvalue = 201.8"] ;
552 -> 553 ;
554 [label="squared_error = 0.0\nsamples = 1\nvalue = 202.1"] ;
552 -> 554 ;
555 [label="squared_error = 0.0\nsamples = 1\nvalue = 203.1"] ;
551 -> 555 ;
556 [label="workTime <= 3728750.5\nsquared_error = 154.9\nsamples = 26\nvalue = 229.2"] ;
542 -> 556 ;
557 [label="squared_error = 0.0\nsamples = 1\nvalue = 268.6"] ;
556 -> 557 ;
558 [label="Ushunt <= 7.3\nsquared_error = 116.9\nsamples = 25\nvalue = 228.1"] ;
556 -> 558 ;
559 [label="divf <= 0.5\nsquared_error = 98.0\nsamples = 24\nvalue = 229.3"] ;
558 -> 559 ;
560 [label="add <= 0.5\nsquared_error = 83.0\nsamples = 23\nvalue = 228.6"] ;
559 -> 560 ;
561 [label="Iges <= 43.5\nsquared_error = 80.0\nsamples = 20\nvalue = 227.1"] ;
560 -> 561 ;
562 [label="Iges <= 41.5\nsquared_error = 80.7\nsamples = 14\nvalue = 229.7"] ;
561 -> 562 ;
563 [label="Ushunt <= 4.8\nsquared_error = 152.8\nsamples = 4\nvalue = 221.6"] ;
562 -> 563 ;
564 [label="Idle1Time <= 12970489.5\nsquared_error = 5.3\nsamples = 2\nvalue = 230.2"] ;
563 -> 564 ;
565 [label="squared_error = 0.0\nsamples = 1\nvalue = 232.5"] ;
564 -> 565 ;
566 [label="squared_error = -0.0\nsamples = 1\nvalue = 227.9"] ;
564 -> 566 ;
567 [label="Idle1Time <= 11247548.5\nsquared_error = 0.0\nsamples = 2\nvalue = 204.3"] ;
563 -> 567 ;
568 [label="squared_error = 0.0\nsamples = 1\nvalue = 204.4"] ;
567 -> 568 ;
569 [label="squared_error = 0.0\nsamples = 1\nvalue = 204.2"] ;
567 -> 569 ;
570 [label="Ushunt <= 4.9\nsquared_error = 15.1\nsamples = 10\nvalue = 232.9"] ;
562 -> 570 ;
571 [label="mainTime <= 2943.0\nsquared_error = 2.0\nsamples = 4\nvalue = 229.5"] ;
570 -> 571 ;
572 [label="Ushunt <= 4.8\nsquared_error = 0.1\nsamples = 3\nvalue = 228.5"] ;
571 -> 572 ;
573 [label="squared_error = 0.0\nsamples = 1\nvalue = 228.0"] ;
572 -> 573 ;
574 [label="Iges <= 42.3\nsquared_error = 0.0\nsamples = 2\nvalue = 228.7"] ;
572 -> 574 ;
575 [label="squared_error = 0.0\nsamples = 1\nvalue = 228.7"] ;
574 -> 575 ;
576 [label="squared_error = -0.0\nsamples = 1\nvalue = 228.6"] ;
574 -> 576 ;
577 [label="squared_error = 0.0\nsamples = 1\nvalue = 231.5"] ;
571 -> 577 ;
578 [label="workTime <= 5564317.5\nsquared_error = 10.9\nsamples = 6\nvalue = 235.2"] ;
570 -> 578 ;
579 [label="Iges <= 41.7\nsquared_error = 1.0\nsamples = 3\nvalue = 233.0"] ;
578 -> 579 ;
580 [label="squared_error = 0.0\nsamples = 1\nvalue = 233.9"] ;
579 -> 580 ;
581 [label="Ushunt <= 5.8\nsquared_error = 0.1\nsamples = 2\nvalue = 232.0"] ;
579 -> 581 ;
582 [label="squared_error = 0.0\nsamples = 1\nvalue = 232.4"] ;
581 -> 582 ;
583 [label="squared_error = 0.0\nsamples = 1\nvalue = 231.8"] ;
581 -> 583 ;
584 [label="Ushunt <= 5.9\nsquared_error = 1.8\nsamples = 3\nvalue = 239.6"] ;
578 -> 584 ;
585 [label="MIN_FREQ <= 120.0\nsquared_error = 0.0\nsamples = 2\nvalue = 238.6"] ;
584 -> 585 ;
586 [label="squared_error = 0.0\nsamples = 1\nvalue = 238.4"] ;
585 -> 586 ;
587 [label="squared_error = -0.0\nsamples = 1\nvalue = 238.9"] ;
585 -> 587 ;
588 [label="squared_error = -0.0\nsamples = 1\nvalue = 241.5"] ;
584 -> 588 ;
589 [label="Iges <= 43.9\nsquared_error = 25.7\nsamples = 6\nvalue = 221.0"] ;
561 -> 589 ;
590 [label="mainTime <= 2087.0\nsquared_error = 0.8\nsamples = 2\nvalue = 215.4"] ;
589 -> 590 ;
591 [label="squared_error = 0.0\nsamples = 1\nvalue = 214.8"] ;
590 -> 591 ;
592 [label="squared_error = -0.0\nsamples = 1\nvalue = 216.7"] ;
590 -> 592 ;
593 [label="Idle1Time <= 3749215.5\nsquared_error = 14.9\nsamples = 4\nvalue = 223.8"] ;
589 -> 593 ;
594 [label="Ushunt <= 5.7\nsquared_error = 2.9\nsamples = 3\nvalue = 222.2"] ;
593 -> 594 ;
595 [label="mainTime <= 2895.0\nsquared_error = 0.1\nsamples = 2\nvalue = 220.8"] ;
594 -> 595 ;
596 [label="squared_error = 0.0\nsamples = 1\nvalue = 220.6"] ;
595 -> 596 ;
597 [label="squared_error = -0.0\nsamples = 1\nvalue = 221.2"] ;
595 -> 597 ;
598 [label="squared_error = 0.0\nsamples = 1\nvalue = 224.3"] ;
594 -> 598 ;
599 [label="squared_error = 0.0\nsamples = 1\nvalue = 231.7"] ;
593 -> 599 ;
600 [label="Ushunt <= 4.7\nsquared_error = 5.3\nsamples = 3\nvalue = 237.6"] ;
560 -> 600 ;
601 [label="squared_error = 0.0\nsamples = 1\nvalue = 234.9"] ;
600 -> 601 ;
602 [label="mainTime <= 2901.5\nsquared_error = 0.3\nsamples = 2\nvalue = 239.5"] ;
600 -> 602 ;
603 [label="squared_error = 0.0\nsamples = 1\nvalue = 238.7"] ;
602 -> 603 ;
604 [label="squared_error = 0.0\nsamples = 1\nvalue = 239.8"] ;
602 -> 604 ;
605 [label="squared_error = -0.0\nsamples = 1\nvalue = 253.9"] ;
559 -> 605 ;
606 [label="squared_error = 0.0\nsamples = 1\nvalue = 207.3"] ;
558 -> 606 ;
607 [label="Ushunt <= 5.2\nsquared_error = 502.0\nsamples = 322\nvalue = 248.3"] ;
1 -> 607 ;
608 [label="Ushunt <= 4.3\nsquared_error = 285.4\nsamples = 125\nvalue = 231.3"] ;
607 -> 608 ;
609 [label="Iges <= 54.6\nsquared_error = 181.4\nsamples = 18\nvalue = 210.6"] ;
608 -> 609 ;
610 [label="Iges <= 53.4\nsquared_error = 153.6\nsamples = 17\nvalue = 211.8"] ;
609 -> 610 ;
611 [label="workTime <= 3729874.5\nsquared_error = 69.9\nsamples = 16\nvalue = 209.9"] ;
610 -> 611 ;
612 [label="workTime <= 3728992.5\nsquared_error = 124.9\nsamples = 3\nvalue = 219.2"] ;
611 -> 612 ;
613 [label="workTime <= 3726909.5\nsquared_error = 49.6\nsamples = 2\nvalue = 211.3"] ;
612 -> 613 ;
614 [label="squared_error = 0.0\nsamples = 1\nvalue = 201.3"] ;
613 -> 614 ;
615 [label="squared_error = -0.0\nsamples = 1\nvalue = 216.3"] ;
613 -> 615 ;
616 [label="squared_error = 0.0\nsamples = 1\nvalue = 231.2"] ;
612 -> 616 ;
617 [label="mainTime <= 2941.5\nsquared_error = 26.2\nsamples = 13\nvalue = 207.4"] ;
611 -> 617 ;
618 [label="Iges <= 45.4\nsquared_error = 14.9\nsamples = 7\nvalue = 202.5"] ;
617 -> 618 ;
619 [label="squared_error = 0.0\nsamples = 1\nvalue = 210.1"] ;
618 -> 619 ;
620 [label="Ushunt <= 4.1\nsquared_error = 7.7\nsamples = 6\nvalue = 201.4"] ;
618 -> 620 ;
621 [label="workTime <= 9312861.5\nsquared_error = 0.4\nsamples = 2\nvalue = 199.0"] ;
620 -> 621 ;
622 [label="squared_error = 0.0\nsamples = 1\nvalue = 198.6"] ;
621 -> 622 ;
623 [label="squared_error = -0.0\nsamples = 1\nvalue = 199.8"] ;
621 -> 623 ;
624 [label="mainTime <= 2897.5\nsquared_error = 5.4\nsamples = 4\nvalue = 203.2"] ;
620 -> 624 ;
625 [label="squared_error = 0.0\nsamples = 1\nvalue = 207.2"] ;
624 -> 625 ;
626 [label="workTime <= 9262517.0\nsquared_error = 0.0\nsamples = 3\nvalue = 201.9"] ;
624 -> 626 ;
627 [label="squared_error = 0.0\nsamples = 1\nvalue = 202.0"] ;
626 -> 627 ;
628 [label="sub <= 0.5\nsquared_error = 0.0\nsamples = 2\nvalue = 201.8"] ;
626 -> 628 ;
629 [label="squared_error = 0.0\nsamples = 1\nvalue = 201.8"] ;
628 -> 629 ;
630 [label="squared_error = 0.0\nsamples = 1\nvalue = 201.8"] ;
628 -> 630 ;
631 [label="workTime <= 7489624.0\nsquared_error = 4.4\nsamples = 6\nvalue = 210.9"] ;
617 -> 631 ;
632 [label="mainTime <= 2964.0\nsquared_error = 1.0\nsamples = 4\nvalue = 209.5"] ;
631 -> 632 ;
633 [label="Ushunt <= 3.9\nsquared_error = 0.0\nsamples = 2\nvalue = 211.0"] ;
632 -> 633 ;
634 [label="squared_error = 0.0\nsamples = 1\nvalue = 211.1"] ;
633 -> 634 ;
635 [label="squared_error = -0.0\nsamples = 1\nvalue = 210.9"] ;
633 -> 635 ;
636 [label="mul <= 0.5\nsquared_error = 0.1\nsamples = 2\nvalue = 208.9"] ;
632 -> 636 ;
637 [label="squared_error = -0.0\nsamples = 1\nvalue = 208.6"] ;
636 -> 637 ;
638 [label="squared_error = -0.0\nsamples = 1\nvalue = 209.3"] ;
636 -> 638 ;
639 [label="Ushunt <= 4.2\nsquared_error = 0.1\nsamples = 2\nvalue = 213.5"] ;
631 -> 639 ;
640 [label="squared_error = 0.0\nsamples = 1\nvalue = 213.3"] ;
639 -> 640 ;
641 [label="squared_error = -0.0\nsamples = 1\nvalue = 214.0"] ;
639 -> 641 ;
642 [label="squared_error = -0.0\nsamples = 1\nvalue = 257.3"] ;
610 -> 642 ;
643 [label="squared_error = 0.0\nsamples = 1\nvalue = 181.6"] ;
609 -> 643 ;
644 [label="Iges <= 47.9\nsquared_error = 223.1\nsamples = 107\nvalue = 234.6"] ;
608 -> 644 ;
645 [label="workTime <= 3637514.5\nsquared_error = 164.6\nsamples = 46\nvalue = 226.7"] ;
644 -> 645 ;
646 [label="squared_error = 0.0\nsamples = 1\nvalue = 192.2"] ;
645 -> 646 ;
647 [label="addf <= 0.5\nsquared_error = 149.7\nsamples = 45\nvalue = 227.2"] ;
645 -> 647 ;
648 [label="Iges <= 46.3\nsquared_error = 138.4\nsamples = 40\nvalue = 228.8"] ;
647 -> 648 ;
649 [label="Ushunt <= 4.9\nsquared_error = 67.6\nsamples = 9\nvalue = 237.9"] ;
648 -> 649 ;
650 [label="Ushunt <= 4.5\nsquared_error = 43.0\nsamples = 4\nvalue = 232.8"] ;
649 -> 650 ;
651 [label="squared_error = 0.0\nsamples = 1\nvalue = 246.6"] ;
650 -> 651 ;
652 [label="Ushunt <= 4.7\nsquared_error = 13.5\nsamples = 3\nvalue = 230.5"] ;
650 -> 652 ;
653 [label="mainTime <= 2447.5\nsquared_error = 4.8\nsamples = 2\nvalue = 227.2"] ;
652 -> 653 ;
654 [label="squared_error = 0.0\nsamples = 1\nvalue = 228.8"] ;
653 -> 654 ;
655 [label="squared_error = 0.0\nsamples = 1\nvalue = 224.1"] ;
653 -> 655 ;
656 [label="squared_error = -0.0\nsamples = 1\nvalue = 233.9"] ;
652 -> 656 ;
657 [label="Idle1Time <= 3749468.0\nsquared_error = 32.6\nsamples = 5\nvalue = 243.7"] ;
649 -> 657 ;
658 [label="Idle1Time <= 3748523.5\nsquared_error = 1.2\nsamples = 2\nvalue = 238.4"] ;
657 -> 658 ;
659 [label="squared_error = 0.0\nsamples = 1\nvalue = 236.8"] ;
658 -> 659 ;
660 [label="squared_error = -0.0\nsamples = 1\nvalue = 239.2"] ;
658 -> 660 ;
661 [label="Iges <= 45.6\nsquared_error = 7.0\nsamples = 3\nvalue = 249.1"] ;
657 -> 661 ;
662 [label="MIN_FREQ <= 120.0\nsquared_error = 0.7\nsamples = 2\nvalue = 247.2"] ;
661 -> 662 ;
663 [label="squared_error = 0.0\nsamples = 1\nvalue = 246.4"] ;
662 -> 663 ;
664 [label="squared_error = -0.0\nsamples = 1\nvalue = 248.0"] ;
662 -> 664 ;
665 [label="squared_error = 0.0\nsamples = 1\nvalue = 252.7"] ;
661 -> 665 ;
666 [label="MIN_FREQ <= 120.0\nsquared_error = 129.1\nsamples = 31\nvalue = 226.3"] ;
648 -> 666 ;
667 [label="Iges <= 47.3\nsquared_error = 167.3\nsamples = 17\nvalue = 222.5"] ;
666 -> 667 ;
668 [label="mainTime <= 2910.5\nsquared_error = 90.4\nsamples = 13\nvalue = 226.7"] ;
667 -> 668 ;
669 [label="mulf <= 0.5\nsquared_error = 216.3\nsamples = 3\nvalue = 212.1"] ;
668 -> 669 ;
670 [label="mainTime <= 2898.0\nsquared_error = 5.0\nsamples = 2\nvalue = 201.8"] ;
669 -> 670 ;
671 [label="squared_error = 0.0\nsamples = 1\nvalue = 204.0"] ;
670 -> 671 ;
672 [label="squared_error = -0.0\nsamples = 1\nvalue = 199.6"] ;
670 -> 672 ;
673 [label="squared_error = -0.0\nsamples = 1\nvalue = 232.7"] ;
669 -> 673 ;
674 [label="Ushunt <= 4.6\nsquared_error = 23.9\nsamples = 10\nvalue = 229.3"] ;
668 -> 674 ;
675 [label="Iges <= 46.5\nsquared_error = 0.7\nsamples = 3\nvalue = 223.2"] ;
674 -> 675 ;
676 [label="squared_error = 0.0\nsamples = 1\nvalue = 222.4"] ;
675 -> 676 ;
677 [label="mul <= 0.5\nsquared_error = 0.0\nsamples = 2\nvalue = 224.0"] ;
675 -> 677 ;
678 [label="squared_error = 0.0\nsamples = 1\nvalue = 223.9"] ;
677 -> 678 ;
679 [label="squared_error = 0.0\nsamples = 1\nvalue = 224.3"] ;
677 -> 679 ;
680 [label="subf <= 0.5\nsquared_error = 5.2\nsamples = 7\nvalue = 232.6"] ;
674 -> 680 ;
681 [label="Iges <= 46.9\nsquared_error = 1.5\nsamples = 6\nvalue = 231.7"] ;
680 -> 681 ;
682 [label="Iges <= 46.5\nsquared_error = 1.2\nsamples = 4\nvalue = 231.2"] ;
681 -> 682 ;
683 [label="Ushunt <= 5.1\nsquared_error = 0.4\nsamples = 2\nvalue = 231.8"] ;
682 -> 683 ;
684 [label="squared_error = 0.0\nsamples = 1\nvalue = 231.5"] ;
683 -> 684 ;
685 [label="squared_error = 0.0\nsamples = 1\nvalue = 233.0"] ;
683 -> 685 ;
686 [label="workTime <= 14845814.0\nsquared_error = 0.0\nsamples = 2\nvalue = 229.8"] ;
682 -> 686 ;
687 [label="squared_error = 0.0\nsamples = 1\nvalue = 229.9"] ;
686 -> 687 ;
688 [label="squared_error = -0.0\nsamples = 1\nvalue = 229.7"] ;
686 -> 688 ;
689 [label="Idle1Time <= 142319.0\nsquared_error = 0.3\nsamples = 2\nvalue = 232.7"] ;
681 -> 689 ;
690 [label="squared_error = 0.0\nsamples = 1\nvalue = 233.4"] ;
689 -> 690 ;
691 [label="squared_error = -0.0\nsamples = 1\nvalue = 232.4"] ;
689 -> 691 ;
692 [label="squared_error = 0.0\nsamples = 1\nvalue = 236.9"] ;
680 -> 692 ;
693 [label="mainTime <= 3002.5\nsquared_error = 210.0\nsamples = 4\nvalue = 213.1"] ;
667 -> 693 ;
694 [label="Idle1Time <= 11247121.5\nsquared_error = 27.7\nsamples = 3\nvalue = 205.8"] ;
693 -> 694 ;
695 [label="workTime <= 9311276.0\nsquared_error = 8.6\nsamples = 2\nvalue = 201.6"] ;
694 -> 695 ;
696 [label="squared_error = 0.0\nsamples = 1\nvalue = 204.6"] ;
695 -> 696 ;
697 [label="squared_error = -0.0\nsamples = 1\nvalue = 198.7"] ;
695 -> 697 ;
698 [label="squared_error = 0.0\nsamples = 1\nvalue = 211.3"] ;
694 -> 698 ;
699 [label="squared_error = 0.0\nsamples = 1\nvalue = 238.8"] ;
693 -> 699 ;
700 [label="Iges <= 47.8\nsquared_error = 6.4\nsamples = 14\nvalue = 232.4"] ;
666 -> 700 ;
701 [label="Iges <= 46.6\nsquared_error = 3.0\nsamples = 13\nvalue = 232.0"] ;
700 -> 701 ;
702 [label="squared_error = 0.0\nsamples = 1\nvalue = 228.7"] ;
701 -> 702 ;
703 [label="Iges <= 47.6\nsquared_error = 1.8\nsamples = 12\nvalue = 232.4"] ;
701 -> 703 ;
704 [label="mainTime <= 1603.5\nsquared_error = 0.5\nsamples = 6\nvalue = 233.5"] ;
703 -> 704 ;
705 [label="mul <= 0.5\nsquared_error = 0.2\nsamples = 2\nvalue = 234.6"] ;
704 -> 705 ;
706 [label="squared_error = 0.0\nsamples = 1\nvalue = 235.1"] ;
705 -> 706 ;
707 [label="squared_error = -0.0\nsamples = 1\nvalue = 234.2"] ;
705 -> 707 ;
708 [label="mainTime <= 1857.5\nsquared_error = 0.1\nsamples = 4\nvalue = 233.2"] ;
704 -> 708 ;
709 [label="mul <= 0.5\nsquared_error = 0.0\nsamples = 3\nvalue = 232.9"] ;
708 -> 709 ;
710 [label="workTime <= 7479397.0\nsquared_error = 0.0\nsamples = 2\nvalue = 233.0"] ;
709 -> 710 ;
711 [label="squared_error = 0.0\nsamples = 1\nvalue = 233.1"] ;
710 -> 711 ;
712 [label="squared_error = 0.0\nsamples = 1\nvalue = 233.0"] ;
710 -> 712 ;
713 [label="squared_error = -0.0\nsamples = 1\nvalue = 232.7"] ;
709 -> 713 ;
714 [label="squared_error = 0.0\nsamples = 1\nvalue = 233.6"] ;
708 -> 714 ;
715 [label="workTime <= 11181504.0\nsquared_error = 0.2\nsamples = 6\nvalue = 231.2"] ;
703 -> 715 ;
716 [label="Ushunt <= 5.2\nsquared_error = 0.1\nsamples = 5\nvalue = 231.3"] ;
715 -> 716 ;
717 [label="mulf <= 0.5\nsquared_error = 0.0\nsamples = 4\nvalue = 231.4"] ;
716 -> 717 ;
718 [label="subf <= 0.5\nsquared_error = 0.0\nsamples = 3\nvalue = 231.3"] ;
717 -> 718 ;
719 [label="add <= 0.5\nsquared_error = 0.0\nsamples = 2\nvalue = 231.3"] ;
718 -> 719 ;
720 [label="squared_error = 0.0\nsamples = 1\nvalue = 231.3"] ;
719 -> 720 ;
721 [label="squared_error = 0.0\nsamples = 1\nvalue = 231.4"] ;
719 -> 721 ;
722 [label="squared_error = -0.0\nsamples = 1\nvalue = 231.3"] ;
718 -> 722 ;
723 [label="squared_error = 0.0\nsamples = 1\nvalue = 231.8"] ;
717 -> 723 ;
724 [label="squared_error = 0.0\nsamples = 1\nvalue = 230.8"] ;
716 -> 724 ;
725 [label="squared_error = 0.0\nsamples = 1\nvalue = 230.3"] ;
715 -> 725 ;
726 [label="squared_error = -0.0\nsamples = 1\nvalue = 240.3"] ;
700 -> 726 ;
727 [label="Idle1Time <= 11248079.0\nsquared_error = 107.8\nsamples = 5\nvalue = 217.5"] ;
647 -> 727 ;
728 [label="Ushunt <= 4.6\nsquared_error = 25.2\nsamples = 3\nvalue = 223.7"] ;
727 -> 728 ;
729 [label="squared_error = 0.0\nsamples = 1\nvalue = 212.4"] ;
728 -> 729 ;
730 [label="workTime <= 7482516.0\nsquared_error = 4.6\nsamples = 2\nvalue = 225.5"] ;
728 -> 730 ;
731 [label="squared_error = 0.0\nsamples = 1\nvalue = 230.3"] ;
730 -> 731 ;
732 [label="squared_error = -0.0\nsamples = 1\nvalue = 224.6"] ;
730 -> 732 ;
733 [label="Idle1Time <= 11248730.5\nsquared_error = 4.7\nsamples = 2\nvalue = 203.1"] ;
727 -> 733 ;
734 [label="squared_error = 0.0\nsamples = 1\nvalue = 204.6"] ;
733 -> 734 ;
735 [label="squared_error = 0.0\nsamples = 1\nvalue = 200.0"] ;
733 -> 735 ;
736 [label="Iges <= 56.0\nsquared_error = 183.9\nsamples = 61\nvalue = 240.6"] ;
644 -> 736 ;
737 [label="mainTime <= 3007.0\nsquared_error = 129.2\nsamples = 59\nvalue = 239.5"] ;
736 -> 737 ;
738 [label="Idle1Time <= 7690441.5\nsquared_error = 95.6\nsamples = 55\nvalue = 241.4"] ;
737 -> 738 ;
739 [label="Iges <= 47.9\nsquared_error = 76.0\nsamples = 40\nvalue = 243.4"] ;
738 -> 739 ;
740 [label="squared_error = -0.0\nsamples = 1\nvalue = 260.0"] ;
739 -> 740 ;
741 [label="Ushunt <= 4.9\nsquared_error = 65.2\nsamples = 39\nvalue = 242.6"] ;
739 -> 741 ;
742 [label="workTime <= 7393486.0\nsquared_error = 56.2\nsamples = 18\nvalue = 238.5"] ;
741 -> 742 ;
743 [label="squared_error = 0.0\nsamples = 1\nvalue = 213.6"] ;
742 -> 743 ;
744 [label="Ushunt <= 4.6\nsquared_error = 34.6\nsamples = 17\nvalue = 239.4"] ;
742 -> 744 ;
745 [label="Idle1Time <= 5671039.5\nsquared_error = 44.7\nsamples = 3\nvalue = 246.0"] ;
744 -> 745 ;
746 [label="squared_error = 0.0\nsamples = 1\nvalue = 256.3"] ;
745 -> 746 ;
747 [label="mainTime <= 2091.5\nsquared_error = 2.7\nsamples = 2\nvalue = 241.8"] ;
745 -> 747 ;
748 [label="squared_error = 0.0\nsamples = 1\nvalue = 245.1"] ;
747 -> 748 ;
749 [label="squared_error = 0.0\nsamples = 1\nvalue = 241.0"] ;
747 -> 749 ;
750 [label="Iges <= 52.5\nsquared_error = 10.5\nsamples = 14\nvalue = 237.1"] ;
744 -> 750 ;
751 [label="Ushunt <= 4.9\nsquared_error = 3.6\nsamples = 12\nvalue = 238.0"] ;
750 -> 751 ;
752 [label="mainTime <= 2042.0\nsquared_error = 2.1\nsamples = 11\nvalue = 238.3"] ;
751 -> 752 ;
753 [label="Ushunt <= 4.8\nsquared_error = 0.0\nsamples = 2\nvalue = 235.8"] ;
752 -> 753 ;
754 [label="squared_error = 0.0\nsamples = 1\nvalue = 236.0"] ;
753 -> 754 ;
755 [label="squared_error = -0.0\nsamples = 1\nvalue = 235.7"] ;
753 -> 755 ;
756 [label="Iges <= 48.8\nsquared_error = 0.9\nsamples = 9\nvalue = 238.8"] ;
752 -> 756 ;
757 [label="noop <= 0.5\nsquared_error = 0.8\nsamples = 6\nvalue = 238.4"] ;
756 -> 757 ;
758 [label="workTime <= 14911048.5\nsquared_error = 0.5\nsamples = 5\nvalue = 238.2"] ;
757 -> 758 ;
759 [label="Iges <= 48.4\nsquared_error = 0.4\nsamples = 4\nvalue = 238.3"] ;
758 -> 759 ;
760 [label="Iges <= 48.2\nsquared_error = 0.1\nsamples = 2\nvalue = 239.0"] ;
759 -> 760 ;
761 [label="squared_error = 0.0\nsamples = 1\nvalue = 238.7"] ;
760 -> 761 ;
762 [label="squared_error = -0.0\nsamples = 1\nvalue = 239.4"] ;
760 -> 762 ;
763 [label="Ushunt <= 4.8\nsquared_error = 0.0\nsamples = 2\nvalue = 237.8"] ;
759 -> 763 ;
764 [label="squared_error = 0.0\nsamples = 1\nvalue = 238.2"] ;
763 -> 764 ;
765 [label="squared_error = 0.0\nsamples = 1\nvalue = 237.7"] ;
763 -> 765 ;
766 [label="squared_error = -0.0\nsamples = 1\nvalue = 237.0"] ;
758 -> 766 ;
767 [label="squared_error = 0.0\nsamples = 1\nvalue = 240.1"] ;
757 -> 767 ;
768 [label="Iges <= 50.7\nsquared_error = 0.1\nsamples = 3\nvalue = 239.6"] ;
756 -> 768 ;
769 [label="Idle1Time <= 5672150.5\nsquared_error = 0.0\nsamples = 2\nvalue = 239.5"] ;
768 -> 769 ;
770 [label="squared_error = 0.0\nsamples = 1\nvalue = 239.1"] ;
769 -> 770 ;
771 [label="squared_error = -0.0\nsamples = 1\nvalue = 239.6"] ;
769 -> 771 ;
772 [label="squared_error = 0.0\nsamples = 1\nvalue = 240.1"] ;
768 -> 772 ;
773 [label="squared_error = -0.0\nsamples = 1\nvalue = 232.6"] ;
751 -> 773 ;
774 [label="mul <= 0.5\nsquared_error = 4.1\nsamples = 2\nvalue = 229.2"] ;
750 -> 774 ;
775 [label="squared_error = 0.0\nsamples = 1\nvalue = 227.2"] ;
774 -> 775 ;
776 [label="squared_error = -0.0\nsamples = 1\nvalue = 231.2"] ;
774 -> 776 ;
777 [label="workTime <= 14892836.5\nsquared_error = 44.1\nsamples = 21\nvalue = 246.3"] ;
741 -> 777 ;
778 [label="Iges <= 50.2\nsquared_error = 31.8\nsamples = 19\nvalue = 245.3"] ;
777 -> 778 ;
779 [label="Iges <= 48.9\nsquared_error = 11.5\nsamples = 9\nvalue = 241.7"] ;
778 -> 779 ;
780 [label="Iges <= 48.5\nsquared_error = 4.8\nsamples = 2\nvalue = 235.6"] ;
779 -> 780 ;
781 [label="squared_error = 0.0\nsamples = 1\nvalue = 233.4"] ;
780 -> 781 ;
782 [label="squared_error = 0.0\nsamples = 1\nvalue = 237.8"] ;
780 -> 782 ;
783 [label="subf <= 0.5\nsquared_error = 5.4\nsamples = 7\nvalue = 242.7"] ;
779 -> 783 ;
784 [label="Ushunt <= 5.1\nsquared_error = 2.1\nsamples = 6\nvalue = 241.9"] ;
783 -> 784 ;
785 [label="noop <= 0.5\nsquared_error = 0.7\nsamples = 4\nvalue = 241.3"] ;
784 -> 785 ;
786 [label="Idle1Time <= 7522243.0\nsquared_error = 0.0\nsamples = 3\nvalue = 241.0"] ;
785 -> 786 ;
787 [label="workTime <= 7489986.5\nsquared_error = 0.0\nsamples = 2\nvalue = 240.9"] ;
786 -> 787 ;
788 [label="squared_error = 0.0\nsamples = 1\nvalue = 241.0"] ;
787 -> 788 ;
789 [label="squared_error = 0.0\nsamples = 1\nvalue = 240.8"] ;
787 -> 789 ;
790 [label="squared_error = 0.0\nsamples = 1\nvalue = 241.1"] ;
786 -> 790 ;
791 [label="squared_error = -0.0\nsamples = 1\nvalue = 243.4"] ;
785 -> 791 ;
792 [label="workTime <= 11096536.0\nsquared_error = 0.7\nsamples = 2\nvalue = 244.3"] ;
784 -> 792 ;
793 [label="squared_error = 0.0\nsamples = 1\nvalue = 243.4"] ;
792 -> 793 ;
794 [label="squared_error = -0.0\nsamples = 1\nvalue = 245.1"] ;
792 -> 794 ;
795 [label="squared_error = 0.0\nsamples = 1\nvalue = 247.0"] ;
783 -> 795 ;
796 [label="add <= 0.5\nsquared_error = 27.2\nsamples = 10\nvalue = 248.7"] ;
778 -> 796 ;
797 [label="addf <= 0.5\nsquared_error = 19.6\nsamples = 9\nvalue = 249.9"] ;
796 -> 797 ;
798 [label="Idle1Time <= 7595090.0\nsquared_error = 12.1\nsamples = 8\nvalue = 250.8"] ;
797 -> 798 ;
799 [label="Ushunt <= 5.0\nsquared_error = 7.6\nsamples = 6\nvalue = 251.8"] ;
798 -> 799 ;
800 [label="mul <= 0.5\nsquared_error = 0.6\nsamples = 2\nvalue = 255.0"] ;
799 -> 800 ;
801 [label="squared_error = 0.0\nsamples = 1\nvalue = 255.5"] ;
800 -> 801 ;
802 [label="squared_error = -0.0\nsamples = 1\nvalue = 253.9"] ;
800 -> 802 ;
803 [label="noop <= 0.5\nsquared_error = 4.5\nsamples = 4\nvalue = 250.5"] ;
799 -> 803 ;
804 [label="mainTime <= 2074.5\nsquared_error = 1.0\nsamples = 3\nvalue = 249.2"] ;
803 -> 804 ;
805 [label="squared_error = 0.0\nsamples = 1\nvalue = 247.4"] ;
804 -> 805 ;
806 [label="Iges <= 52.8\nsquared_error = 0.2\nsamples = 2\nvalue = 249.7"] ;
804 -> 806 ;
807 [label="squared_error = 0.0\nsamples = 1\nvalue = 250.1"] ;
806 -> 807 ;
808 [label="squared_error = -0.0\nsamples = 1\nvalue = 249.2"] ;
806 -> 808 ;
809 [label="squared_error = 0.0\nsamples = 1\nvalue = 253.5"] ;
803 -> 809 ;
810 [label="Ushunt <= 5.0\nsquared_error = 2.4\nsamples = 2\nvalue = 245.6"] ;
798 -> 810 ;
811 [label="squared_error = 0.0\nsamples = 1\nvalue = 247.2"] ;
810 -> 811 ;
812 [label="squared_error = 0.0\nsamples = 1\nvalue = 244.1"] ;
810 -> 812 ;
813 [label="squared_error = -0.0\nsamples = 1\nvalue = 239.9"] ;
797 -> 813 ;
814 [label="squared_error = 0.0\nsamples = 1\nvalue = 240.6"] ;
796 -> 814 ;
815 [label="Ushunt <= 5.1\nsquared_error = 7.9\nsamples = 2\nvalue = 260.5"] ;
777 -> 815 ;
816 [label="squared_error = 0.0\nsamples = 1\nvalue = 263.3"] ;
815 -> 816 ;
817 [label="squared_error = 0.0\nsamples = 1\nvalue = 257.7"] ;
815 -> 817 ;
818 [label="mainTime <= 2948.5\nsquared_error = 104.9\nsamples = 15\nvalue = 235.5"] ;
738 -> 818 ;
819 [label="mainTime <= 2062.5\nsquared_error = 63.8\nsamples = 14\nvalue = 237.0"] ;
818 -> 819 ;
820 [label="Ushunt <= 4.6\nsquared_error = 4.4\nsamples = 6\nvalue = 231.3"] ;
819 -> 820 ;
821 [label="squared_error = 0.0\nsamples = 1\nvalue = 224.8"] ;
820 -> 821 ;
822 [label="mainTime <= 1598.0\nsquared_error = 0.7\nsamples = 5\nvalue = 231.9"] ;
820 -> 822 ;
823 [label="squared_error = 0.0\nsamples = 1\nvalue = 233.0"] ;
822 -> 823 ;
824 [label="workTime <= 3729751.0\nsquared_error = 0.0\nsamples = 4\nvalue = 231.3"] ;
822 -> 824 ;
825 [label="squared_error = 0.0\nsamples = 1\nvalue = 230.8"] ;
824 -> 825 ;
826 [label="Iges <= 48.9\nsquared_error = 0.0\nsamples = 3\nvalue = 231.3"] ;
824 -> 826 ;
827 [label="Idle1Time <= 14659032.5\nsquared_error = 0.0\nsamples = 2\nvalue = 231.4"] ;
826 -> 827 ;
828 [label="squared_error = 0.0\nsamples = 1\nvalue = 231.4"] ;
827 -> 828 ;
829 [label="squared_error = 0.0\nsamples = 1\nvalue = 231.3"] ;
827 -> 829 ;
830 [label="squared_error = 0.0\nsamples = 1\nvalue = 231.2"] ;
826 -> 830 ;
831 [label="workTime <= 3729032.5\nsquared_error = 42.1\nsamples = 8\nvalue = 244.6"] ;
819 -> 831 ;
832 [label="Ushunt <= 4.7\nsquared_error = 0.9\nsamples = 2\nvalue = 253.5"] ;
831 -> 832 ;
833 [label="squared_error = 0.0\nsamples = 1\nvalue = 252.6"] ;
832 -> 833 ;
834 [label="squared_error = -0.0\nsamples = 1\nvalue = 254.5"] ;
832 -> 834 ;
835 [label="Ushunt <= 5.1\nsquared_error = 24.5\nsamples = 6\nvalue = 242.0"] ;
831 -> 835 ;
836 [label="Iges <= 50.2\nsquared_error = 6.7\nsamples = 5\nvalue = 243.8"] ;
835 -> 836 ;
837 [label="workTime <= 5561915.0\nsquared_error = 0.0\nsamples = 2\nvalue = 240.5"] ;
836 -> 837 ;
838 [label="squared_error = 0.0\nsamples = 1\nvalue = 240.7"] ;
837 -> 838 ;
839 [label="squared_error = 0.0\nsamples = 1\nvalue = 240.4"] ;
837 -> 839 ;
840 [label="div <= 0.5\nsquared_error = 2.1\nsamples = 3\nvalue = 245.4"] ;
836 -> 840 ;
841 [label="mul <= 0.5\nsquared_error = 0.0\nsamples = 2\nvalue = 244.6"] ;
840 -> 841 ;
842 [label="squared_error = 0.0\nsamples = 1\nvalue = 244.7"] ;
841 -> 842 ;
843 [label="squared_error = -0.0\nsamples = 1\nvalue = 244.3"] ;
841 -> 843 ;
844 [label="squared_error = 0.0\nsamples = 1\nvalue = 247.9"] ;
840 -> 844 ;
845 [label="squared_error = -0.0\nsamples = 1\nvalue = 231.4"] ;
835 -> 845 ;
846 [label="squared_error = 0.0\nsamples = 1\nvalue = 205.1"] ;
818 -> 846 ;
847 [label="subf <= 0.5\nsquared_error = 13.2\nsamples = 4\nvalue = 217.6"] ;
737 -> 847 ;
848 [label="mul <= 0.5\nsquared_error = 1.7\nsamples = 2\nvalue = 214.7"] ;
847 -> 848 ;
849 [label="squared_error = 0.0\nsamples = 1\nvalue = 216.9"] ;
848 -> 849 ;
850 [label="squared_error = -0.0\nsamples = 1\nvalue = 213.9"] ;
848 -> 850 ;
851 [label="workTime <= 11224022.0\nsquared_error = 0.8\nsamples = 2\nvalue = 221.6"] ;
847 -> 851 ;
852 [label="squared_error = 0.0\nsamples = 1\nvalue = 221.0"] ;
851 -> 852 ;
853 [label="squared_error = 0.0\nsamples = 1\nvalue = 222.9"] ;
851 -> 853 ;
854 [label="Ushunt <= 5.0\nsquared_error = 221.7\nsamples = 2\nvalue = 289.6"] ;
736 -> 854 ;
855 [label="squared_error = 0.0\nsamples = 1\nvalue = 304.5"] ;
854 -> 855 ;
856 [label="squared_error = -0.0\nsamples = 1\nvalue = 274.7"] ;
854 -> 856 ;
857 [label="Iges <= 49.6\nsquared_error = 348.5\nsamples = 197\nvalue = 258.8"] ;
607 -> 857 ;
858 [label="Ushunt <= 5.6\nsquared_error = 362.9\nsamples = 65\nvalue = 246.5"] ;
857 -> 858 ;
859 [label="workTime <= 3636681.0\nsquared_error = 261.4\nsamples = 34\nvalue = 240.4"] ;
858 -> 859 ;
860 [label="squared_error = 0.0\nsamples = 1\nvalue = 284.2"] ;
859 -> 860 ;
861 [label="workTime <= 14885968.0\nsquared_error = 198.5\nsamples = 33\nvalue = 238.8"] ;
859 -> 861 ;
862 [label="workTime <= 11131074.5\nsquared_error = 151.6\nsamples = 31\nvalue = 236.3"] ;
861 -> 862 ;
863 [label="mainTime <= 2110.0\nsquared_error = 56.3\nsamples = 12\nvalue = 230.4"] ;
862 -> 863 ;
864 [label="mainTime <= 2078.5\nsquared_error = 24.5\nsamples = 11\nvalue = 229.2"] ;
863 -> 864 ;
865 [label="Idle1Time <= 7638032.0\nsquared_error = 8.8\nsamples = 7\nvalue = 231.9"] ;
864 -> 865 ;
866 [label="Iges <= 48.2\nsquared_error = 1.8\nsamples = 3\nvalue = 235.4"] ;
865 -> 866 ;
867 [label="add <= 0.5\nsquared_error = 0.0\nsamples = 2\nvalue = 236.1"] ;
866 -> 867 ;
868 [label="squared_error = 0.0\nsamples = 1\nvalue = 236.1"] ;
867 -> 868 ;
869 [label="squared_error = -0.0\nsamples = 1\nvalue = 235.9"] ;
867 -> 869 ;
870 [label="squared_error = 0.0\nsamples = 1\nvalue = 232.7"] ;
866 -> 870 ;
871 [label="workTime <= 3729561.0\nsquared_error = 1.8\nsamples = 4\nvalue = 229.9"] ;
865 -> 871 ;
872 [label="squared_error = 0.0\nsamples = 1\nvalue = 227.8"] ;
871 -> 872 ;
873 [label="mainTime <= 1640.5\nsquared_error = 0.8\nsamples = 3\nvalue = 230.5"] ;
871 -> 873 ;
874 [label="Ushunt <= 5.5\nsquared_error = 0.0\nsamples = 2\nvalue = 229.9"] ;
873 -> 874 ;
875 [label="squared_error = 0.0\nsamples = 1\nvalue = 230.0"] ;
874 -> 875 ;
876 [label="squared_error = -0.0\nsamples = 1\nvalue = 229.8"] ;
874 -> 876 ;
877 [label="squared_error = -0.0\nsamples = 1\nvalue = 231.9"] ;
873 -> 877 ;
878 [label="mainTime <= 2088.5\nsquared_error = 12.5\nsamples = 4\nvalue = 223.8"] ;
864 -> 878 ;
879 [label="squared_error = 0.0\nsamples = 1\nvalue = 216.4"] ;
878 -> 879 ;
880 [label="Idle1Time <= 3849481.0\nsquared_error = 3.9\nsamples = 3\nvalue = 225.0"] ;
878 -> 880 ;
881 [label="squared_error = 0.0\nsamples = 1\nvalue = 229.1"] ;
880 -> 881 ;
882 [label="div <= 0.5\nsquared_error = 0.8\nsamples = 2\nvalue = 224.2"] ;
880 -> 882 ;
883 [label="squared_error = 0.0\nsamples = 1\nvalue = 223.8"] ;
882 -> 883 ;
884 [label="squared_error = 0.0\nsamples = 1\nvalue = 226.0"] ;
882 -> 884 ;
885 [label="squared_error = -0.0\nsamples = 1\nvalue = 256.7"] ;
863 -> 885 ;
886 [label="mainTime <= 1640.5\nsquared_error = 177.7\nsamples = 19\nvalue = 240.9"] ;
862 -> 886 ;
887 [label="squared_error = 0.0\nsamples = 1\nvalue = 280.0"] ;
886 -> 887 ;
888 [label="mainTime <= 2882.0\nsquared_error = 125.8\nsamples = 18\nvalue = 239.5"] ;
886 -> 888 ;
889 [label="mainTime <= 2068.0\nsquared_error = 94.4\nsamples = 11\nvalue = 244.3"] ;
888 -> 889 ;
890 [label="mainTime <= 1647.5\nsquared_error = 4.9\nsamples = 4\nvalue = 235.1"] ;
889 -> 890 ;
891 [label="squared_error = 0.0\nsamples = 1\nvalue = 239.6"] ;
890 -> 891 ;
892 [label="workTime <= 11138152.0\nsquared_error = 0.9\nsamples = 3\nvalue = 234.2"] ;
890 -> 892 ;
893 [label="squared_error = 0.0\nsamples = 1\nvalue = 236.1"] ;
892 -> 893 ;
894 [label="Idle1Time <= 9236876.5\nsquared_error = 0.0\nsamples = 2\nvalue = 233.7"] ;
892 -> 894 ;
895 [label="squared_error = 0.0\nsamples = 1\nvalue = 233.5"] ;
894 -> 895 ;
896 [label="squared_error = 0.0\nsamples = 1\nvalue = 233.7"] ;
894 -> 896 ;
897 [label="mulf <= 0.5\nsquared_error = 71.4\nsamples = 7\nvalue = 249.3"] ;
889 -> 897 ;
898 [label="Iges <= 48.5\nsquared_error = 38.6\nsamples = 5\nvalue = 252.3"] ;
897 -> 898 ;
899 [label="workTime <= 11156976.5\nsquared_error = 4.7\nsamples = 4\nvalue = 250.2"] ;
898 -> 899 ;
900 [label="squared_error = 0.0\nsamples = 1\nvalue = 247.8"] ;
899 -> 900 ;
901 [label="workTime <= 11205626.0\nsquared_error = 1.9\nsamples = 3\nvalue = 251.7"] ;
899 -> 901 ;
902 [label="squared_error = 0.0\nsamples = 1\nvalue = 253.3"] ;
901 -> 902 ;
903 [label="divf <= 0.5\nsquared_error = 0.3\nsamples = 2\nvalue = 250.6"] ;
901 -> 903 ;
904 [label="squared_error = 0.0\nsamples = 1\nvalue = 250.2"] ;
903 -> 904 ;
905 [label="squared_error = 0.0\nsamples = 1\nvalue = 251.4"] ;
903 -> 905 ;
906 [label="squared_error = 0.0\nsamples = 1\nvalue = 268.9"] ;
898 -> 906 ;
907 [label="Iges <= 47.8\nsquared_error = 5.4\nsamples = 2\nvalue = 236.1"] ;
897 -> 907 ;
908 [label="squared_error = 0.0\nsamples = 1\nvalue = 233.8"] ;
907 -> 908 ;
909 [label="squared_error = -0.0\nsamples = 1\nvalue = 238.4"] ;
907 -> 909 ;
910 [label="Iges <= 45.8\nsquared_error = 72.8\nsamples = 7\nvalue = 231.3"] ;
888 -> 910 ;
911 [label="squared_error = 0.0\nsamples = 1\nvalue = 246.0"] ;
910 -> 911 ;
912 [label="mainTime <= 2968.0\nsquared_error = 23.4\nsamples = 6\nvalue = 227.6"] ;
910 -> 912 ;
913 [label="Idle1Time <= 1924520.5\nsquared_error = 8.3\nsamples = 3\nvalue = 230.6"] ;
912 -> 913 ;
914 [label="Idle1Time <= 99317.5\nsquared_error = 0.0\nsamples = 2\nvalue = 228.2"] ;
913 -> 914 ;
915 [label="squared_error = 0.0\nsamples = 1\nvalue = 227.9"] ;
914 -> 915 ;
916 [label="squared_error = 0.0\nsamples = 1\nvalue = 228.4"] ;
914 -> 916 ;
917 [label="squared_error = -0.0\nsamples = 1\nvalue = 234.1"] ;
913 -> 917 ;
918 [label="subf <= 0.5\nsquared_error = 10.7\nsamples = 3\nvalue = 222.8"] ;
912 -> 918 ;
919 [label="workTime <= 11217442.5\nsquared_error = 0.2\nsamples = 2\nvalue = 225.1"] ;
918 -> 919 ;
920 [label="squared_error = 0.0\nsamples = 1\nvalue = 224.6"] ;
919 -> 920 ;
921 [label="squared_error = 0.0\nsamples = 1\nvalue = 225.5"] ;
919 -> 921 ;
922 [label="squared_error = 0.0\nsamples = 1\nvalue = 218.2"] ;
918 -> 922 ;
923 [label="sub <= 0.5\nsquared_error = 3.5\nsamples = 2\nvalue = 263.3"] ;
861 -> 923 ;
924 [label="squared_error = 0.0\nsamples = 1\nvalue = 259.6"] ;
923 -> 924 ;
925 [label="squared_error = 0.0\nsamples = 1\nvalue = 264.3"] ;
923 -> 925 ;
926 [label="Ushunt <= 5.6\nsquared_error = 386.4\nsamples = 31\nvalue = 253.4"] ;
858 -> 926 ;
927 [label="Idle1Time <= 9373011.0\nsquared_error = 79.3\nsamples = 2\nvalue = 280.3"] ;
926 -> 927 ;
928 [label="squared_error = 0.0\nsamples = 1\nvalue = 267.7"] ;
927 -> 928 ;
929 [label="squared_error = 0.0\nsamples = 1\nvalue = 286.6"] ;
927 -> 929 ;
930 [label="Iges <= 46.3\nsquared_error = 318.2\nsamples = 29\nvalue = 249.8"] ;
926 -> 930 ;
931 [label="workTime <= 11182189.0\nsquared_error = 140.5\nsamples = 5\nvalue = 234.0"] ;
930 -> 931 ;
932 [label="workTime <= 11134693.0\nsquared_error = 11.8\nsamples = 2\nvalue = 223.5"] ;
931 -> 932 ;
933 [label="squared_error = 0.0\nsamples = 1\nvalue = 221.5"] ;
932 -> 933 ;
934 [label="squared_error = 0.0\nsamples = 1\nvalue = 229.4"] ;
932 -> 934 ;
935 [label="subf <= 0.5\nsquared_error = 50.3\nsamples = 3\nvalue = 244.4"] ;
931 -> 935 ;
936 [label="Ushunt <= 5.8\nsquared_error = 0.0\nsamples = 2\nvalue = 248.5"] ;
935 -> 936 ;
937 [label="squared_error = 0.0\nsamples = 1\nvalue = 248.4"] ;
936 -> 937 ;
938 [label="squared_error = 0.0\nsamples = 1\nvalue = 248.8"] ;
936 -> 938 ;
939 [label="squared_error = 0.0\nsamples = 1\nvalue = 232.1"] ;
935 -> 939 ;
940 [label="Idle1Time <= 3821681.0\nsquared_error = 290.3\nsamples = 24\nvalue = 253.3"] ;
930 -> 940 ;
941 [label="workTime <= 13039088.0\nsquared_error = 1.9\nsamples = 2\nvalue = 229.7"] ;
940 -> 941 ;
942 [label="squared_error = 0.0\nsamples = 1\nvalue = 232.1"] ;
941 -> 942 ;
943 [label="squared_error = 0.0\nsamples = 1\nvalue = 228.8"] ;
941 -> 943 ;
944 [label="noop <= 0.5\nsquared_error = 249.5\nsamples = 22\nvalue = 256.1"] ;
940 -> 944 ;
945 [label="Idle1Time <= 11248819.0\nsquared_error = 204.5\nsamples = 19\nvalue = 259.8"] ;
944 -> 945 ;
946 [label="Iges <= 48.0\nsquared_error = 206.1\nsamples = 13\nvalue = 254.5"] ;
945 -> 946 ;
947 [label="addf <= 0.5\nsquared_error = 125.7\nsamples = 9\nvalue = 259.8"] ;
946 -> 947 ;
948 [label="mainTime <= 2085.5\nsquared_error = 23.1\nsamples = 7\nvalue = 264.1"] ;
947 -> 948 ;
949 [label="add <= 0.5\nsquared_error = 6.6\nsamples = 4\nvalue = 259.8"] ;
948 -> 949 ;
950 [label="div <= 0.5\nsquared_error = 5.8\nsamples = 3\nvalue = 261.2"] ;
949 -> 950 ;
951 [label="Iges <= 47.2\nsquared_error = 0.0\nsamples = 2\nvalue = 262.9"] ;
950 -> 951 ;
952 [label="squared_error = 0.0\nsamples = 1\nvalue = 262.7"] ;
951 -> 952 ;
953 [label="squared_error = 0.0\nsamples = 1\nvalue = 263.1"] ;
951 -> 953 ;
954 [label="squared_error = 0.0\nsamples = 1\nvalue = 257.8"] ;
950 -> 954 ;
955 [label="squared_error = 0.0\nsamples = 1\nvalue = 257.6"] ;
949 -> 955 ;
956 [label="mainTime <= 2124.5\nsquared_error = 7.5\nsamples = 3\nvalue = 267.8"] ;
948 -> 956 ;
957 [label="Idle1Time <= 7546465.5\nsquared_error = 0.1\nsamples = 2\nvalue = 265.9"] ;
956 -> 957 ;
958 [label="squared_error = 0.0\nsamples = 1\nvalue = 266.1"] ;
957 -> 958 ;
959 [label="squared_error = 0.0\nsamples = 1\nvalue = 265.6"] ;
957 -> 959 ;
960 [label="squared_error = -0.0\nsamples = 1\nvalue = 271.6"] ;
956 -> 960 ;
961 [label="Idle1Time <= 11245444.5\nsquared_error = 3.0\nsamples = 2\nvalue = 235.6"] ;
947 -> 961 ;
962 [label="squared_error = 0.0\nsamples = 1\nvalue = 237.4"] ;
961 -> 962 ;
963 [label="squared_error = 0.0\nsamples = 1\nvalue = 233.9"] ;
961 -> 963 ;
964 [label="subf <= 0.5\nsquared_error = 152.5\nsamples = 4\nvalue = 240.7"] ;
946 -> 964 ;
965 [label="mainTime <= 1633.0\nsquared_error = 1.4\nsamples = 3\nvalue = 234.5"] ;
964 -> 965 ;
966 [label="squared_error = 0.0\nsamples = 1\nvalue = 232.5"] ;
965 -> 966 ;
967 [label="mainTime <= 1855.5\nsquared_error = 0.0\nsamples = 2\nvalue = 235.2"] ;
965 -> 967 ;
968 [label="squared_error = 0.0\nsamples = 1\nvalue = 235.3"] ;
967 -> 968 ;
969 [label="squared_error = 0.0\nsamples = 1\nvalue = 235.1"] ;
967 -> 969 ;
970 [label="squared_error = -0.0\nsamples = 1\nvalue = 265.3"] ;
964 -> 970 ;
971 [label="Ushunt <= 6.6\nsquared_error = 57.1\nsamples = 6\nvalue = 269.4"] ;
945 -> 971 ;
972 [label="Ushunt <= 6.0\nsquared_error = 7.2\nsamples = 5\nvalue = 267.1"] ;
971 -> 972 ;
973 [label="Ushunt <= 5.7\nsquared_error = 3.3\nsamples = 3\nvalue = 268.6"] ;
972 -> 973 ;
974 [label="squared_error = 0.0\nsamples = 1\nvalue = 266.1"] ;
973 -> 974 ;
975 [label="workTime <= 5560884.0\nsquared_error = 0.2\nsamples = 2\nvalue = 269.9"] ;
973 -> 975 ;
976 [label="squared_error = 0.0\nsamples = 1\nvalue = 269.5"] ;
975 -> 976 ;
977 [label="squared_error = 0.0\nsamples = 1\nvalue = 270.3"] ;
975 -> 977 ;
978 [label="Ushunt <= 6.3\nsquared_error = 0.1\nsamples = 2\nvalue = 263.9"] ;
972 -> 978 ;
979 [label="squared_error = 0.0\nsamples = 1\nvalue = 263.5"] ;
978 -> 979 ;
980 [label="squared_error = 0.0\nsamples = 1\nvalue = 264.1"] ;
978 -> 980 ;
981 [label="squared_error = -0.0\nsamples = 1\nvalue = 290.8"] ;
971 -> 981 ;
982 [label="Idle1Time <= 14687505.5\nsquared_error = 2.8\nsamples = 3\nvalue = 235.6"] ;
944 -> 982 ;
983 [label="Iges <= 47.8\nsquared_error = 0.1\nsamples = 2\nvalue = 234.2"] ;
982 -> 983 ;
984 [label="squared_error = 0.0\nsamples = 1\nvalue = 233.9"] ;
983 -> 984 ;
985 [label="squared_error = 0.0\nsamples = 1\nvalue = 234.4"] ;
983 -> 985 ;
986 [label="squared_error = -0.0\nsamples = 1\nvalue = 237.6"] ;
982 -> 986 ;
987 [label="Iges <= 49.7\nsquared_error = 218.8\nsamples = 132\nvalue = 265.3"] ;
857 -> 987 ;
988 [label="squared_error = 0.0\nsamples = 1\nvalue = 308.5"] ;
987 -> 988 ;
989 [label="Iges <= 53.8\nsquared_error = 185.0\nsamples = 131\nvalue = 264.4"] ;
987 -> 989 ;
990 [label="mainTime <= 2939.5\nsquared_error = 126.0\nsamples = 74\nvalue = 259.2"] ;
989 -> 990 ;
991 [label="Idle1Time <= 7522788.0\nsquared_error = 68.8\nsamples = 67\nvalue = 260.7"] ;
990 -> 991 ;
992 [label="Idle1Time <= 3773314.0\nsquared_error = 61.9\nsamples = 41\nvalue = 257.9"] ;
991 -> 992 ;
993 [label="Iges <= 51.3\nsquared_error = 37.5\nsamples = 38\nvalue = 259.2"] ;
992 -> 993 ;
994 [label="mainTime <= 1870.0\nsquared_error = 3.0\nsamples = 3\nvalue = 242.6"] ;
993 -> 994 ;
995 [label="workTime <= 14893230.0\nsquared_error = 0.1\nsamples = 2\nvalue = 241.4"] ;
994 -> 995 ;
996 [label="squared_error = 0.0\nsamples = 1\nvalue = 241.2"] ;
995 -> 996 ;
997 [label="squared_error = 0.0\nsamples = 1\nvalue = 241.6"] ;
995 -> 997 ;
998 [label="squared_error = 0.0\nsamples = 1\nvalue = 245.1"] ;
994 -> 998 ;
999 [label="Ushunt <= 6.5\nsquared_error = 21.7\nsamples = 35\nvalue = 260.2"] ;
993 -> 999 ;
1000 [label="Iges <= 53.5\nsquared_error = 8.1\nsamples = 34\nvalue = 259.7"] ;
999 -> 1000 ;
1001 [label="Idle1Time <= 145150.0\nsquared_error = 2.5\nsamples = 28\nvalue = 258.4"] ;
1000 -> 1001 ;
1002 [label="squared_error = 0.0\nsamples = 1\nvalue = 254.0"] ;
1001 -> 1002 ;
1003 [label="subf <= 0.5\nsquared_error = 2.0\nsamples = 27\nvalue = 258.5"] ;
1001 -> 1003 ;
1004 [label="mainTime <= 2088.5\nsquared_error = 1.7\nsamples = 23\nvalue = 258.3"] ;
1003 -> 1004 ;
1005 [label="workTime <= 14792056.5\nsquared_error = 0.6\nsamples = 17\nvalue = 258.6"] ;
1004 -> 1005 ;
1006 [label="noop <= 0.5\nsquared_error = 0.7\nsamples = 4\nvalue = 259.6"] ;
1005 -> 1006 ;
1007 [label="Ushunt <= 5.3\nsquared_error = 0.0\nsamples = 3\nvalue = 260.1"] ;
1006 -> 1007 ;
1008 [label="squared_error = 0.0\nsamples = 1\nvalue = 259.8"] ;
1007 -> 1008 ;
1009 [label="workTime <= 14791809.0\nsquared_error = 0.0\nsamples = 2\nvalue = 260.2"] ;
1007 -> 1009 ;
1010 [label="squared_error = 0.0\nsamples = 1\nvalue = 260.2"] ;
1009 -> 1010 ;
1011 [label="squared_error = 0.0\nsamples = 1\nvalue = 260.2"] ;
1009 -> 1011 ;
1012 [label="squared_error = 0.0\nsamples = 1\nvalue = 258.1"] ;
1006 -> 1012 ;
1013 [label="Iges <= 53.3\nsquared_error = 0.3\nsamples = 13\nvalue = 258.4"] ;
1005 -> 1013 ;
1014 [label="Idle1Time <= 195036.0\nsquared_error = 0.2\nsamples = 9\nvalue = 258.2"] ;
1013 -> 1014 ;
1015 [label="mul <= 0.5\nsquared_error = 0.0\nsamples = 2\nvalue = 257.8"] ;
1014 -> 1015 ;
1016 [label="squared_error = 0.0\nsamples = 1\nvalue = 257.8"] ;
1015 -> 1016 ;
1017 [label="squared_error = -0.0\nsamples = 1\nvalue = 257.7"] ;
1015 -> 1017 ;
1018 [label="Idle1Time <= 196021.0\nsquared_error = 0.1\nsamples = 7\nvalue = 258.4"] ;
1014 -> 1018 ;
1019 [label="addf <= 0.5\nsquared_error = 0.0\nsamples = 5\nvalue = 258.5"] ;
1018 -> 1019 ;
1020 [label="mulf <= 0.5\nsquared_error = 0.0\nsamples = 4\nvalue = 258.6"] ;
1019 -> 1020 ;
1021 [label="Idle1Time <= 195614.0\nsquared_error = 0.0\nsamples = 2\nvalue = 258.8"] ;
1020 -> 1021 ;
1022 [label="squared_error = 0.0\nsamples = 1\nvalue = 258.8"] ;
1021 -> 1022 ;
1023 [label="squared_error = 0.0\nsamples = 1\nvalue = 258.8"] ;
1021 -> 1023 ;
1024 [label="workTime <= 14792909.5\nsquared_error = 0.0\nsamples = 2\nvalue = 258.4"] ;
1020 -> 1024 ;
1025 [label="squared_error = 0.0\nsamples = 1\nvalue = 258.5"] ;
1024 -> 1025 ;
1026 [label="squared_error = 0.0\nsamples = 1\nvalue = 258.3"] ;
1024 -> 1026 ;
1027 [label="squared_error = 0.0\nsamples = 1\nvalue = 258.3"] ;
1019 -> 1027 ;
1028 [label="mainTime <= 1829.0\nsquared_error = 0.0\nsamples = 2\nvalue = 257.8"] ;
1018 -> 1028 ;
1029 [label="squared_error = 0.0\nsamples = 1\nvalue = 257.8"] ;
1028 -> 1029 ;
1030 [label="squared_error = 0.0\nsamples = 1\nvalue = 257.7"] ;
1028 -> 1030 ;
1031 [label="Iges <= 53.4\nsquared_error = 0.2\nsamples = 4\nvalue = 259.1"] ;
1013 -> 1031 ;
1032 [label="Ushunt <= 5.3\nsquared_error = 0.0\nsamples = 3\nvalue = 259.4"] ;
1031 -> 1032 ;
1033 [label="squared_error = -0.0\nsamples = 2\nvalue = 259.5"] ;
1032 -> 1033 ;
1034 [label="squared_error = 0.0\nsamples = 1\nvalue = 259.3"] ;
1032 -> 1034 ;
1035 [label="squared_error = 0.0\nsamples = 1\nvalue = 258.6"] ;
1031 -> 1035 ;
1036 [label="Ushunt <= 5.3\nsquared_error = 3.6\nsamples = 6\nvalue = 257.3"] ;
1004 -> 1036 ;
1037 [label="mainTime <= 2093.0\nsquared_error = 1.0\nsamples = 4\nvalue = 256.3"] ;
1036 -> 1037 ;
1038 [label="squared_error = 0.0\nsamples = 1\nvalue = 254.4"] ;
1037 -> 1038 ;
1039 [label="Ushunt <= 5.3\nsquared_error = 0.3\nsamples = 3\nvalue = 256.7"] ;
1037 -> 1039 ;
1040 [label="mainTime <= 2115.0\nsquared_error = 0.1\nsamples = 2\nvalue = 257.1"] ;
1039 -> 1040 ;
1041 [label="squared_error = 0.0\nsamples = 1\nvalue = 257.5"] ;
1040 -> 1041 ;
1042 [label="squared_error = -0.0\nsamples = 1\nvalue = 256.9"] ;
1040 -> 1042 ;
1043 [label="squared_error = 0.0\nsamples = 1\nvalue = 256.1"] ;
1039 -> 1043 ;
1044 [label="workTime <= 14793651.0\nsquared_error = 0.0\nsamples = 2\nvalue = 260.2"] ;
1036 -> 1044 ;
1045 [label="squared_error = 0.0\nsamples = 1\nvalue = 260.4"] ;
1044 -> 1045 ;
1046 [label="squared_error = -0.0\nsamples = 1\nvalue = 260.0"] ;
1044 -> 1046 ;
1047 [label="Idle1Time <= 196876.5\nsquared_error = 1.0\nsamples = 4\nvalue = 260.1"] ;
1003 -> 1047 ;
1048 [label="Idle1Time <= 196390.0\nsquared_error = 0.1\nsamples = 3\nvalue = 260.6"] ;
1047 -> 1048 ;
1049 [label="Iges <= 52.8\nsquared_error = 0.0\nsamples = 2\nvalue = 260.7"] ;
1048 -> 1049 ;
1050 [label="squared_error = 0.0\nsamples = 1\nvalue = 260.6"] ;
1049 -> 1050 ;
1051 [label="squared_error = 0.0\nsamples = 1\nvalue = 260.9"] ;
1049 -> 1051 ;
1052 [label="squared_error = -0.0\nsamples = 1\nvalue = 260.2"] ;
1048 -> 1052 ;
1053 [label="squared_error = 0.0\nsamples = 1\nvalue = 258.1"] ;
1047 -> 1053 ;
1054 [label="Iges <= 53.5\nsquared_error = 2.1\nsamples = 6\nvalue = 264.1"] ;
1000 -> 1054 ;
1055 [label="squared_error = 0.0\nsamples = 1\nvalue = 266.8"] ;
1054 -> 1055 ;
1056 [label="MIN_FREQ <= 120.0\nsquared_error = 0.5\nsamples = 5\nvalue = 263.5"] ;
1054 -> 1056 ;
1057 [label="squared_error = 0.0\nsamples = 1\nvalue = 262.1"] ;
1056 -> 1057 ;
1058 [label="workTime <= 15029304.0\nsquared_error = 0.0\nsamples = 4\nvalue = 263.8"] ;
1056 -> 1058 ;
1059 [label="divf <= 0.5\nsquared_error = 0.0\nsamples = 3\nvalue = 263.8"] ;
1058 -> 1059 ;
1060 [label="squared_error = 0.0\nsamples = 1\nvalue = 263.7"] ;
1059 -> 1060 ;
1061 [label="mainTime <= 2085.5\nsquared_error = 0.0\nsamples = 2\nvalue = 263.8"] ;
1059 -> 1061 ;
1062 [label="squared_error = 0.0\nsamples = 1\nvalue = 263.8"] ;
1061 -> 1062 ;
1063 [label="squared_error = 0.0\nsamples = 1\nvalue = 263.8"] ;
1061 -> 1063 ;
1064 [label="squared_error = 0.0\nsamples = 1\nvalue = 264.2"] ;
1058 -> 1064 ;
1065 [label="squared_error = -0.0\nsamples = 1\nvalue = 286.0"] ;
999 -> 1065 ;
1066 [label="workTime <= 11160136.5\nsquared_error = 73.1\nsamples = 3\nvalue = 241.1"] ;
992 -> 1066 ;
1067 [label="divf <= 0.5\nsquared_error = 3.3\nsamples = 2\nvalue = 249.5"] ;
1066 -> 1067 ;
1068 [label="squared_error = 0.0\nsamples = 1\nvalue = 247.7"] ;
1067 -> 1068 ;
1069 [label="squared_error = -0.0\nsamples = 1\nvalue = 251.4"] ;
1067 -> 1069 ;
1070 [label="squared_error = 0.0\nsamples = 1\nvalue = 232.6"] ;
1066 -> 1070 ;
1071 [label="Iges <= 52.3\nsquared_error = 51.1\nsamples = 26\nvalue = 264.8"] ;
991 -> 1071 ;
1072 [label="mainTime <= 2108.0\nsquared_error = 63.2\nsamples = 7\nvalue = 270.7"] ;
1071 -> 1072 ;
1073 [label="Idle1Time <= 14694618.5\nsquared_error = 32.5\nsamples = 6\nvalue = 268.6"] ;
1072 -> 1073 ;
1074 [label="Ushunt <= 5.6\nsquared_error = 9.6\nsamples = 4\nvalue = 271.3"] ;
1073 -> 1074 ;
1075 [label="workTime <= 5586899.5\nsquared_error = 8.0\nsamples = 2\nvalue = 267.8"] ;
1074 -> 1075 ;
1076 [label="squared_error = 0.0\nsamples = 1\nvalue = 270.7"] ;
1075 -> 1076 ;
1077 [label="squared_error = -0.0\nsamples = 1\nvalue = 265.0"] ;
1075 -> 1077 ;
1078 [label="div <= 0.5\nsquared_error = 1.3\nsamples = 2\nvalue = 273.1"] ;
1074 -> 1078 ;
1079 [label="squared_error = 0.0\nsamples = 1\nvalue = 271.9"] ;
1078 -> 1079 ;
1080 [label="squared_error = 0.0\nsamples = 1\nvalue = 274.2"] ;
1078 -> 1080 ;
1081 [label="sub <= 0.5\nsquared_error = 15.7\nsamples = 2\nvalue = 260.6"] ;
1073 -> 1081 ;
1082 [label="squared_error = 0.0\nsamples = 1\nvalue = 264.6"] ;
1081 -> 1082 ;
1083 [label="squared_error = 0.0\nsamples = 1\nvalue = 256.7"] ;
1081 -> 1083 ;
1084 [label="squared_error = -0.0\nsamples = 1\nvalue = 287.3"] ;
1072 -> 1084 ;
1085 [label="add <= 0.5\nsquared_error = 33.6\nsamples = 19\nvalue = 263.0"] ;
1071 -> 1085 ;
1086 [label="Iges <= 52.9\nsquared_error = 27.5\nsamples = 16\nvalue = 264.7"] ;
1085 -> 1086 ;
1087 [label="Idle1Time <= 14698099.5\nsquared_error = 89.4\nsamples = 3\nvalue = 270.0"] ;
1086 -> 1087 ;
1088 [label="div <= 0.5\nsquared_error = 23.3\nsamples = 2\nvalue = 265.1"] ;
1087 -> 1088 ;
1089 [label="squared_error = 0.0\nsamples = 1\nvalue = 258.3"] ;
1088 -> 1089 ;
1090 [label="squared_error = -0.0\nsamples = 1\nvalue = 268.5"] ;
1088 -> 1090 ;
1091 [label="squared_error = -0.0\nsamples = 1\nvalue = 284.7"] ;
1087 -> 1091 ;
1092 [label="Ushunt <= 6.1\nsquared_error = 8.2\nsamples = 13\nvalue = 263.6"] ;
1086 -> 1092 ;
1093 [label="div <= 0.5\nsquared_error = 8.6\nsamples = 9\nvalue = 262.7"] ;
1092 -> 1093 ;
1094 [label="noop <= 0.5\nsquared_error = 1.2\nsamples = 6\nvalue = 261.6"] ;
1093 -> 1094 ;
1095 [label="workTime <= 3729428.5\nsquared_error = 0.6\nsamples = 5\nvalue = 261.2"] ;
1094 -> 1095 ;
1096 [label="squared_error = 0.0\nsamples = 1\nvalue = 259.4"] ;
1095 -> 1096 ;
1097 [label="Idle1Time <= 12969888.0\nsquared_error = 0.1\nsamples = 4\nvalue = 261.5"] ;
1095 -> 1097 ;
1098 [label="squared_error = 0.0\nsamples = 1\nvalue = 261.8"] ;
1097 -> 1098 ;
1099 [label="Iges <= 53.5\nsquared_error = 0.1\nsamples = 3\nvalue = 261.2"] ;
1097 -> 1099 ;
1100 [label="squared_error = 0.0\nsamples = 1\nvalue = 261.6"] ;
1099 -> 1100 ;
1101 [label="Iges <= 53.7\nsquared_error = 0.0\nsamples = 2\nvalue = 260.9"] ;
1099 -> 1101 ;
1102 [label="squared_error = 0.0\nsamples = 1\nvalue = 260.7"] ;
1101 -> 1102 ;
1103 [label="squared_error = 0.0\nsamples = 1\nvalue = 261.2"] ;
1101 -> 1103 ;
1104 [label="squared_error = 0.0\nsamples = 1\nvalue = 263.3"] ;
1094 -> 1104 ;
1105 [label="mainTime <= 1809.0\nsquared_error = 17.8\nsamples = 3\nvalue = 265.3"] ;
1093 -> 1105 ;
1106 [label="mainTime <= 1499.0\nsquared_error = 0.2\nsamples = 2\nvalue = 262.9"] ;
1105 -> 1106 ;
1107 [label="squared_error = 0.0\nsamples = 1\nvalue = 262.6"] ;
1106 -> 1107 ;
1108 [label="squared_error = -0.0\nsamples = 1\nvalue = 263.4"] ;
1106 -> 1108 ;
1109 [label="squared_error = 0.0\nsamples = 1\nvalue = 272.6"] ;
1105 -> 1109 ;
1110 [label="workTime <= 9125958.5\nsquared_error = 0.9\nsamples = 4\nvalue = 265.7"] ;
1092 -> 1110 ;
1111 [label="workTime <= 3730118.5\nsquared_error = 0.3\nsamples = 3\nvalue = 265.3"] ;
1110 -> 1111 ;
1112 [label="Iges <= 53.6\nsquared_error = 0.0\nsamples = 2\nvalue = 264.9"] ;
1111 -> 1112 ;
1113 [label="squared_error = 0.0\nsamples = 1\nvalue = 265.0"] ;
1112 -> 1113 ;
1114 [label="squared_error = -0.0\nsamples = 1\nvalue = 264.7"] ;
1112 -> 1114 ;
1115 [label="squared_error = 0.0\nsamples = 1\nvalue = 266.0"] ;
1111 -> 1115 ;
1116 [label="squared_error = 0.0\nsamples = 1\nvalue = 267.6"] ;
1110 -> 1116 ;
1117 [label="workTime <= 14707335.0\nsquared_error = 2.2\nsamples = 3\nvalue = 256.3"] ;
1085 -> 1117 ;
1118 [label="squared_error = 0.0\nsamples = 1\nvalue = 258.3"] ;
1117 -> 1118 ;
1119 [label="workTime <= 14893351.5\nsquared_error = 0.2\nsamples = 2\nvalue = 255.3"] ;
1117 -> 1119 ;
1120 [label="squared_error = 0.0\nsamples = 1\nvalue = 255.7"] ;
1119 -> 1120 ;
1121 [label="squared_error = 0.0\nsamples = 1\nvalue = 254.9"] ;
1119 -> 1121 ;
1122 [label="mainTime <= 2971.5\nsquared_error = 411.7\nsamples = 7\nvalue = 245.5"] ;
990 -> 1122 ;
1123 [label="Ushunt <= 5.9\nsquared_error = 100.7\nsamples = 3\nvalue = 228.4"] ;
1122 -> 1123 ;
1124 [label="squared_error = 0.0\nsamples = 1\nvalue = 215.3"] ;
1123 -> 1124 ;
1125 [label="Iges <= 51.3\nsquared_error = 22.7\nsamples = 2\nvalue = 235.0"] ;
1123 -> 1125 ;
1126 [label="squared_error = 0.0\nsamples = 1\nvalue = 232.2"] ;
1125 -> 1126 ;
1127 [label="squared_error = -0.0\nsamples = 1\nvalue = 243.2"] ;
1125 -> 1127 ;
1128 [label="Iges <= 53.1\nsquared_error = 17.5\nsamples = 4\nvalue = 265.9"] ;
1122 -> 1128 ;
1129 [label="mainTime <= 2981.0\nsquared_error = 2.1\nsamples = 3\nvalue = 264.0"] ;
1128 -> 1129 ;
1130 [label="Idle1Time <= 1924234.5\nsquared_error = 0.3\nsamples = 2\nvalue = 263.2"] ;
1129 -> 1130 ;
1131 [label="squared_error = 0.0\nsamples = 1\nvalue = 262.4"] ;
1130 -> 1131 ;
1132 [label="squared_error = -0.0\nsamples = 1\nvalue = 263.6"] ;
1130 -> 1132 ;
1133 [label="squared_error = 0.0\nsamples = 1\nvalue = 266.3"] ;
1129 -> 1133 ;
1134 [label="squared_error = 0.0\nsamples = 1\nvalue = 273.9"] ;
1128 -> 1134 ;
1135 [label="Ushunt <= 5.6\nsquared_error = 185.0\nsamples = 57\nvalue = 270.4"] ;
989 -> 1135 ;
1136 [label="Iges <= 55.1\nsquared_error = 69.3\nsamples = 18\nvalue = 263.3"] ;
1135 -> 1136 ;
1137 [label="Idle1Time <= 280298.0\nsquared_error = 31.8\nsamples = 15\nvalue = 265.5"] ;
1136 -> 1137 ;
1138 [label="squared_error = 0.0\nsamples = 1\nvalue = 287.8"] ;
1137 -> 1138 ;
1139 [label="mainTime <= 2054.5\nsquared_error = 11.5\nsamples = 14\nvalue = 264.5"] ;
1137 -> 1139 ;
1140 [label="Iges <= 54.5\nsquared_error = 10.4\nsamples = 11\nvalue = 263.5"] ;
1139 -> 1140 ;
1141 [label="Idle1Time <= 9264379.5\nsquared_error = 3.6\nsamples = 8\nvalue = 262.1"] ;
1140 -> 1141 ;
1142 [label="workTime <= 11156574.0\nsquared_error = 1.3\nsamples = 3\nvalue = 259.8"] ;
1141 -> 1142 ;
1143 [label="squared_error = 0.0\nsamples = 1\nvalue = 260.9"] ;
1142 -> 1143 ;
1144 [label="mainTime <= 2037.5\nsquared_error = 0.2\nsamples = 2\nvalue = 258.7"] ;
1142 -> 1144 ;
1145 [label="squared_error = 0.0\nsamples = 1\nvalue = 258.2"] ;
1144 -> 1145 ;
1146 [label="squared_error = 0.0\nsamples = 1\nvalue = 259.2"] ;
1144 -> 1146 ;
1147 [label="Ushunt <= 5.5\nsquared_error = 0.7\nsamples = 5\nvalue = 263.3"] ;
1141 -> 1147 ;
1148 [label="workTime <= 3730137.0\nsquared_error = 0.1\nsamples = 4\nvalue = 263.8"] ;
1147 -> 1148 ;
1149 [label="squared_error = 0.0\nsamples = 1\nvalue = 264.3"] ;
1148 -> 1149 ;
1150 [label="Idle1Time <= 14700664.0\nsquared_error = 0.0\nsamples = 3\nvalue = 263.6"] ;
1148 -> 1150 ;
1151 [label="squared_error = 0.0\nsamples = 1\nvalue = 264.1"] ;
1150 -> 1151 ;
1152 [label="MIN_FREQ <= 200.0\nsquared_error = 0.0\nsamples = 2\nvalue = 263.5"] ;
1150 -> 1152 ;
